digraph Tree {
node [shape=box] ;
0 [label="marital.status_ Married-civ-spouse <= 0.5\ngini = 0.366\nsamples = 100.0%\nvalue = [0.759, 0.241]\nclass = 0"] ;
1 [label="capital.gain <= 7073.5\ngini = 0.122\nsamples = 54.0%\nvalue = [0.935, 0.065]\nclass = 0"] ;
0 -> 1 [labeldistance=2.5, labelangle=45, headlabel="True"] ;
2 [label="education.num <= 12.5\ngini = 0.093\nsamples = 53.1%\nvalue = [0.951, 0.049]\nclass = 0"] ;
1 -> 2 ;
3 [label="capital.loss <= 2218.5\ngini = 0.048\nsamples = 42.6%\nvalue = [0.975, 0.025]\nclass = 0"] ;
2 -> 3 ;
4 [label="hours.per.week <= 40.5\ngini = 0.045\nsamples = 42.4%\nvalue = [0.977, 0.023]\nclass = 0"] ;
3 -> 4 ;
5 [label="age <= 33.5\ngini = 0.027\nsamples = 34.9%\nvalue = [0.986, 0.014]\nclass = 0"] ;
4 -> 5 ;
6 [label="fnlwgt <= 23759.0\ngini = 0.007\nsamples = 20.6%\nvalue = [0.996, 0.004]\nclass = 0"] ;
5 -> 6 ;
7 [label="gini = 0.142\nsamples = 0.1%\nvalue = [0.923, 0.077]\nclass = 0"] ;
6 -> 7 ;
8 [label="age <= 26.5\ngini = 0.007\nsamples = 20.5%\nvalue = [0.997, 0.003]\nclass = 0"] ;
6 -> 8 ;
9 [label="workclass_ Local-gov <= 0.5\ngini = 0.002\nsamples = 14.8%\nvalue = [0.999, 0.001]\nclass = 0"] ;
8 -> 9 ;
10 [label="workclass_ Self-emp-not-inc <= 0.5\ngini = 0.001\nsamples = 14.4%\nvalue = [0.999, 0.001]\nclass = 0"] ;
9 -> 10 ;
11 [label="occupation_ Other-service <= 0.5\ngini = 0.001\nsamples = 14.2%\nvalue = [1.0, 0.0]\nclass = 0"] ;
10 -> 11 ;
12 [label="gini = 0.0\nsamples = 11.2%\nvalue = [1.0, 0.0]\nclass = 0"] ;
11 -> 12 ;
13 [label="marital.status_ Never-married <= 0.5\ngini = 0.004\nsamples = 3.0%\nvalue = [0.998, 0.002]\nclass = 0"] ;
11 -> 13 ;
14 [label="fnlwgt <= 186256.5\ngini = 0.038\nsamples = 0.2%\nvalue = [0.981, 0.019]\nclass = 0"] ;
13 -> 14 ;
15 [label="gini = 0.0\nsamples = 0.1%\nvalue = [1.0, 0.0]\nclass = 0"] ;
14 -> 15 ;
16 [label="gini = 0.077\nsamples = 0.1%\nvalue = [0.96, 0.04]\nclass = 0"] ;
14 -> 16 ;
17 [label="fnlwgt <= 127914.5\ngini = 0.002\nsamples = 2.9%\nvalue = [0.999, 0.001]\nclass = 0"] ;
13 -> 17 ;
18 [label="fnlwgt <= 123325.5\ngini = 0.008\nsamples = 0.8%\nvalue = [0.996, 0.004]\nclass = 0"] ;
17 -> 18 ;
19 [label="gini = 0.0\nsamples = 0.7%\nvalue = [1.0, 0.0]\nclass = 0"] ;
18 -> 19 ;
20 [label="gini = 0.077\nsamples = 0.1%\nvalue = [0.96, 0.04]\nclass = 0"] ;
18 -> 20 ;
21 [label="gini = 0.0\nsamples = 2.1%\nvalue = [1.0, 0.0]\nclass = 0"] ;
17 -> 21 ;
22 [label="fnlwgt <= 110873.0\ngini = 0.024\nsamples = 0.3%\nvalue = [0.988, 0.012]\nclass = 0"] ;
10 -> 22 ;
23 [label="gini = 0.077\nsamples = 0.1%\nvalue = [0.96, 0.04]\nclass = 0"] ;
22 -> 23 ;
24 [label="gini = 0.0\nsamples = 0.2%\nvalue = [1.0, 0.0]\nclass = 0"] ;
22 -> 24 ;
25 [label="hours.per.week <= 39.0\ngini = 0.036\nsamples = 0.3%\nvalue = [0.981, 0.019]\nclass = 0"] ;
9 -> 25 ;
26 [label="gini = 0.0\nsamples = 0.2%\nvalue = [1.0, 0.0]\nclass = 0"] ;
25 -> 26 ;
27 [label="fnlwgt <= 199791.0\ngini = 0.073\nsamples = 0.2%\nvalue = [0.962, 0.038]\nclass = 0"] ;
25 -> 27 ;
28 [label="gini = 0.137\nsamples = 0.1%\nvalue = [0.926, 0.074]\nclass = 0"] ;
27 -> 28 ;
29 [label="gini = 0.0\nsamples = 0.1%\nvalue = [1.0, 0.0]\nclass = 0"] ;
27 -> 29 ;
30 [label="occupation_ Craft-repair <= 0.5\ngini = 0.018\nsamples = 5.7%\nvalue = [0.991, 0.009]\nclass = 0"] ;
8 -> 30 ;
31 [label="education.num <= 11.5\ngini = 0.012\nsamples = 5.0%\nvalue = [0.994, 0.006]\nclass = 0"] ;
30 -> 31 ;
32 [label="fnlwgt <= 224202.5\ngini = 0.009\nsamples = 4.7%\nvalue = [0.995, 0.005]\nclass = 0"] ;
31 -> 32 ;
33 [label="occupation_ Exec-managerial <= 0.5\ngini = 0.004\nsamples = 3.2%\nvalue = [0.998, 0.002]\nclass = 0"] ;
32 -> 33 ;
34 [label="workclass_ Private <= 0.5\ngini = 0.002\nsamples = 3.0%\nvalue = [0.999, 0.001]\nclass = 0"] ;
33 -> 34 ;
35 [label="occupation_ Other-service <= 0.5\ngini = 0.011\nsamples = 0.6%\nvalue = [0.995, 0.005]\nclass = 0"] ;
34 -> 35 ;
36 [label="gini = 0.0\nsamples = 0.5%\nvalue = [1.0, 0.0]\nclass = 0"] ;
35 -> 36 ;
37 [label="gini = 0.057\nsamples = 0.1%\nvalue = [0.971, 0.029]\nclass = 0"] ;
35 -> 37 ;
38 [label="gini = 0.0\nsamples = 2.5%\nvalue = [1.0, 0.0]\nclass = 0"] ;
34 -> 38 ;
39 [label="fnlwgt <= 121210.0\ngini = 0.029\nsamples = 0.2%\nvalue = [0.986, 0.014]\nclass = 0"] ;
33 -> 39 ;
40 [label="gini = 0.077\nsamples = 0.1%\nvalue = [0.96, 0.04]\nclass = 0"] ;
39 -> 40 ;
41 [label="gini = 0.0\nsamples = 0.1%\nvalue = [1.0, 0.0]\nclass = 0"] ;
39 -> 41 ;
42 [label="fnlwgt <= 229469.5\ngini = 0.021\nsamples = 1.5%\nvalue = [0.989, 0.011]\nclass = 0"] ;
32 -> 42 ;
43 [label="gini = 0.142\nsamples = 0.1%\nvalue = [0.923, 0.077]\nclass = 0"] ;
42 -> 43 ;
44 [label="marital.status_ Never-married <= 0.5\ngini = 0.013\nsamples = 1.4%\nvalue = [0.993, 0.007]\nclass = 0"] ;
42 -> 44 ;
45 [label="education.num <= 9.5\ngini = 0.035\nsamples = 0.5%\nvalue = [0.982, 0.018]\nclass = 0"] ;
44 -> 45 ;
46 [label="gini = 0.0\nsamples = 0.3%\nvalue = [1.0, 0.0]\nclass = 0"] ;
45 -> 46 ;
47 [label="fnlwgt <= 281135.0\ngini = 0.094\nsamples = 0.2%\nvalue = [0.951, 0.049]\nclass = 0"] ;
45 -> 47 ;
48 [label="gini = 0.0\nsamples = 0.1%\nvalue = [1.0, 0.0]\nclass = 0"] ;
47 -> 48 ;
49 [label="gini = 0.165\nsamples = 0.1%\nvalue = [0.909, 0.091]\nclass = 0"] ;
47 -> 49 ;
50 [label="gini = 0.0\nsamples = 0.9%\nvalue = [1.0, 0.0]\nclass = 0"] ;
44 -> 50 ;
51 [label="age <= 29.5\ngini = 0.06\nsamples = 0.3%\nvalue = [0.969, 0.031]\nclass = 0"] ;
31 -> 51 ;
52 [label="gini = 0.133\nsamples = 0.1%\nvalue = [0.929, 0.071]\nclass = 0"] ;
51 -> 52 ;
53 [label="gini = 0.0\nsamples = 0.2%\nvalue = [1.0, 0.0]\nclass = 0"] ;
51 -> 53 ;
54 [label="education.num <= 9.5\ngini = 0.058\nsamples = 0.7%\nvalue = [0.97, 0.03]\nclass = 0"] ;
30 -> 54 ;
55 [label="age <= 27.5\ngini = 0.025\nsamples = 0.5%\nvalue = [0.988, 0.012]\nclass = 0"] ;
54 -> 55 ;
56 [label="gini = 0.077\nsamples = 0.1%\nvalue = [0.96, 0.04]\nclass = 0"] ;
55 -> 56 ;
57 [label="fnlwgt <= 288994.5\ngini = 0.015\nsamples = 0.4%\nvalue = [0.993, 0.007]\nclass = 0"] ;
55 -> 57 ;
58 [label="gini = 0.0\nsamples = 0.3%\nvalue = [1.0, 0.0]\nclass = 0"] ;
57 -> 58 ;
59 [label="gini = 0.074\nsamples = 0.1%\nvalue = [0.962, 0.038]\nclass = 0"] ;
57 -> 59 ;
60 [label="relationship_ Not-in-family <= 0.5\ngini = 0.128\nsamples = 0.2%\nvalue = [0.932, 0.068]\nclass = 0"] ;
54 -> 60 ;
61 [label="gini = 0.193\nsamples = 0.1%\nvalue = [0.892, 0.108]\nclass = 0"] ;
60 -> 61 ;
62 [label="gini = 0.054\nsamples = 0.1%\nvalue = [0.972, 0.028]\nclass = 0"] ;
60 -> 62 ;
63 [label="occupation_ Prof-specialty <= 0.5\ngini = 0.054\nsamples = 14.3%\nvalue = [0.972, 0.028]\nclass = 0"] ;
5 -> 63 ;
64 [label="occupation_ Exec-managerial <= 0.5\ngini = 0.046\nsamples = 13.6%\nvalue = [0.976, 0.024]\nclass = 0"] ;
63 -> 64 ;
65 [label="capital.gain <= 4718.5\ngini = 0.038\nsamples = 12.5%\nvalue = [0.981, 0.019]\nclass = 0"] ;
64 -> 65 ;
66 [label="sex_ Male <= 0.5\ngini = 0.036\nsamples = 12.4%\nvalue = [0.982, 0.018]\nclass = 0"] ;
65 -> 66 ;
67 [label="fnlwgt <= 31486.5\ngini = 0.023\nsamples = 7.9%\nvalue = [0.988, 0.012]\nclass = 0"] ;
66 -> 67 ;
68 [label="hours.per.week <= 36.0\ngini = 0.119\nsamples = 0.2%\nvalue = [0.937, 0.063]\nclass = 0"] ;
67 -> 68 ;
69 [label="gini = 0.0\nsamples = 0.1%\nvalue = [1.0, 0.0]\nclass = 0"] ;
68 -> 69 ;
70 [label="gini = 0.188\nsamples = 0.1%\nvalue = [0.895, 0.105]\nclass = 0"] ;
68 -> 70 ;
71 [label="age <= 51.5\ngini = 0.021\nsamples = 7.7%\nvalue = [0.99, 0.01]\nclass = 0"] ;
67 -> 71 ;
72 [label="fnlwgt <= 408380.0\ngini = 0.013\nsamples = 4.9%\nvalue = [0.994, 0.006]\nclass = 0"] ;
71 -> 72 ;
73 [label="education.num <= 9.5\ngini = 0.01\nsamples = 4.7%\nvalue = [0.995, 0.005]\nclass = 0"] ;
72 -> 73 ;
74 [label="relationship_ Own-child <= 0.5\ngini = 0.002\nsamples = 2.9%\nvalue = [0.999, 0.001]\nclass = 0"] ;
73 -> 74 ;
75 [label="gini = 0.0\nsamples = 2.7%\nvalue = [1.0, 0.0]\nclass = 0"] ;
74 -> 75 ;
76 [label="occupation_ Adm-clerical <= 0.5\ngini = 0.022\nsamples = 0.3%\nvalue = [0.989, 0.011]\nclass = 0"] ;
74 -> 76 ;
77 [label="gini = 0.0\nsamples = 0.2%\nvalue = [1.0, 0.0]\nclass = 0"] ;
76 -> 77 ;
78 [label="gini = 0.074\nsamples = 0.1%\nvalue = [0.962, 0.038]\nclass = 0"] ;
76 -> 78 ;
79 [label="marital.status_ Never-married <= 0.5\ngini = 0.024\nsamples = 1.8%\nvalue = [0.988, 0.012]\nclass = 0"] ;
73 -> 79 ;
80 [label="fnlwgt <= 50158.0\ngini = 0.014\nsamples = 1.3%\nvalue = [0.993, 0.007]\nclass = 0"] ;
79 -> 80 ;
81 [label="gini = 0.067\nsamples = 0.1%\nvalue = [0.966, 0.034]\nclass = 0"] ;
80 -> 81 ;
82 [label="fnlwgt <= 179568.5\ngini = 0.01\nsamples = 1.3%\nvalue = [0.995, 0.005]\nclass = 0"] ;
80 -> 82 ;
83 [label="gini = 0.0\nsamples = 0.6%\nvalue = [1.0, 0.0]\nclass = 0"] ;
82 -> 83 ;
84 [label="fnlwgt <= 189962.0\ngini = 0.02\nsamples = 0.6%\nvalue = [0.99, 0.01]\nclass = 0"] ;
82 -> 84 ;
85 [label="gini = 0.077\nsamples = 0.1%\nvalue = [0.96, 0.04]\nclass = 0"] ;
84 -> 85 ;
86 [label="education.num <= 10.5\ngini = 0.011\nsamples = 0.5%\nvalue = [0.994, 0.006]\nclass = 0"] ;
84 -> 86 ;
87 [label="gini = 0.0\nsamples = 0.4%\nvalue = [1.0, 0.0]\nclass = 0"] ;
86 -> 87 ;
88 [label="gini = 0.051\nsamples = 0.1%\nvalue = [0.974, 0.026]\nclass = 0"] ;
86 -> 88 ;
89 [label="age <= 38.5\ngini = 0.054\nsamples = 0.4%\nvalue = [0.972, 0.028]\nclass = 0"] ;
79 -> 89 ;
90 [label="gini = 0.0\nsamples = 0.2%\nvalue = [1.0, 0.0]\nclass = 0"] ;
89 -> 90 ;
91 [label="fnlwgt <= 183356.0\ngini = 0.114\nsamples = 0.2%\nvalue = [0.939, 0.061]\nclass = 0"] ;
89 -> 91 ;
92 [label="gini = 0.05\nsamples = 0.1%\nvalue = [0.974, 0.026]\nclass = 0"] ;
91 -> 92 ;
93 [label="gini = 0.198\nsamples = 0.1%\nvalue = [0.889, 0.111]\nclass = 0"] ;
91 -> 93 ;
94 [label="gini = 0.083\nsamples = 0.1%\nvalue = [0.957, 0.043]\nclass = 0"] ;
72 -> 94 ;
95 [label="occupation_ Sales <= 0.5\ngini = 0.034\nsamples = 2.8%\nvalue = [0.983, 0.017]\nclass = 0"] ;
71 -> 95 ;
96 [label="fnlwgt <= 168639.5\ngini = 0.024\nsamples = 2.5%\nvalue = [0.988, 0.012]\nclass = 0"] ;
95 -> 96 ;
97 [label="fnlwgt <= 159874.5\ngini = 0.039\nsamples = 1.2%\nvalue = [0.98, 0.02]\nclass = 0"] ;
96 -> 97 ;
98 [label="workclass_ ? <= 0.5\ngini = 0.022\nsamples = 1.1%\nvalue = [0.989, 0.011]\nclass = 0"] ;
97 -> 98 ;
99 [label="fnlwgt <= 110399.5\ngini = 0.013\nsamples = 0.9%\nvalue = [0.993, 0.007]\nclass = 0"] ;
98 -> 99 ;
100 [label="fnlwgt <= 92178.0\ngini = 0.031\nsamples = 0.4%\nvalue = [0.984, 0.016]\nclass = 0"] ;
99 -> 100 ;
101 [label="gini = 0.0\nsamples = 0.2%\nvalue = [1.0, 0.0]\nclass = 0"] ;
100 -> 101 ;
102 [label="age <= 58.5\ngini = 0.069\nsamples = 0.2%\nvalue = [0.964, 0.036]\nclass = 0"] ;
100 -> 102 ;
103 [label="gini = 0.142\nsamples = 0.1%\nvalue = [0.923, 0.077]\nclass = 0"] ;
102 -> 103 ;
104 [label="gini = 0.0\nsamples = 0.1%\nvalue = [1.0, 0.0]\nclass = 0"] ;
102 -> 104 ;
105 [label="gini = 0.0\nsamples = 0.5%\nvalue = [1.0, 0.0]\nclass = 0"] ;
99 -> 105 ;
106 [label="fnlwgt <= 123985.5\ngini = 0.057\nsamples = 0.2%\nvalue = [0.971, 0.029]\nclass = 0"] ;
98 -> 106 ;
107 [label="gini = 0.0\nsamples = 0.1%\nvalue = [1.0, 0.0]\nclass = 0"] ;
106 -> 107 ;
108 [label="gini = 0.142\nsamples = 0.1%\nvalue = [0.923, 0.077]\nclass = 0"] ;
106 -> 108 ;
109 [label="gini = 0.208\nsamples = 0.1%\nvalue = [0.882, 0.118]\nclass = 0"] ;
97 -> 109 ;
110 [label="occupation_ Machine-op-inspct <= 0.5\ngini = 0.01\nsamples = 1.3%\nvalue = [0.995, 0.005]\nclass = 0"] ;
96 -> 110 ;
111 [label="workclass_ Local-gov <= 0.5\ngini = 0.005\nsamples = 1.2%\nvalue = [0.997, 0.003]\nclass = 0"] ;
110 -> 111 ;
112 [label="gini = 0.0\nsamples = 1.1%\nvalue = [1.0, 0.0]\nclass = 0"] ;
111 -> 112 ;
113 [label="gini = 0.054\nsamples = 0.1%\nvalue = [0.972, 0.028]\nclass = 0"] ;
111 -> 113 ;
114 [label="gini = 0.061\nsamples = 0.1%\nvalue = [0.969, 0.031]\nclass = 0"] ;
110 -> 114 ;
115 [label="age <= 58.5\ngini = 0.107\nsamples = 0.3%\nvalue = [0.943, 0.057]\nclass = 0"] ;
95 -> 115 ;
116 [label="hours.per.week <= 35.5\ngini = 0.171\nsamples = 0.2%\nvalue = [0.906, 0.094]\nclass = 0"] ;
115 -> 116 ;
117 [label="gini = 0.269\nsamples = 0.1%\nvalue = [0.84, 0.16]\nclass = 0"] ;
116 -> 117 ;
118 [label="gini = 0.069\nsamples = 0.1%\nvalue = [0.964, 0.036]\nclass = 0"] ;
116 -> 118 ;
119 [label="fnlwgt <= 185168.5\ngini = 0.037\nsamples = 0.2%\nvalue = [0.981, 0.019]\nclass = 0"] ;
115 -> 119 ;
120 [label="gini = 0.077\nsamples = 0.1%\nvalue = [0.96, 0.04]\nclass = 0"] ;
119 -> 120 ;
121 [label="gini = 0.0\nsamples = 0.1%\nvalue = [1.0, 0.0]\nclass = 0"] ;
119 -> 121 ;
122 [label="relationship_ Own-child <= 0.5\ngini = 0.058\nsamples = 4.5%\nvalue = [0.97, 0.03]\nclass = 0"] ;
66 -> 122 ;
123 [label="race_ Black <= 0.5\ngini = 0.068\nsamples = 3.8%\nvalue = [0.965, 0.035]\nclass = 0"] ;
122 -> 123 ;
124 [label="workclass_ Local-gov <= 0.5\ngini = 0.081\nsamples = 3.2%\nvalue = [0.958, 0.042]\nclass = 0"] ;
123 -> 124 ;
125 [label="occupation_ Tech-support <= 0.5\ngini = 0.074\nsamples = 3.0%\nvalue = [0.962, 0.038]\nclass = 0"] ;
124 -> 125 ;
126 [label="occupation_ Other-service <= 0.5\ngini = 0.068\nsamples = 3.0%\nvalue = [0.965, 0.035]\nclass = 0"] ;
125 -> 126 ;
127 [label="age <= 38.5\ngini = 0.077\nsamples = 2.6%\nvalue = [0.96, 0.04]\nclass = 0"] ;
126 -> 127 ;
128 [label="fnlwgt <= 295524.5\ngini = 0.034\nsamples = 0.7%\nvalue = [0.983, 0.017]\nclass = 0"] ;
127 -> 128 ;
129 [label="age <= 36.5\ngini = 0.02\nsamples = 0.6%\nvalue = [0.99, 0.01]\nclass = 0"] ;
128 -> 129 ;
130 [label="gini = 0.0\nsamples = 0.4%\nvalue = [1.0, 0.0]\nclass = 0"] ;
129 -> 130 ;
131 [label="fnlwgt <= 170756.0\ngini = 0.054\nsamples = 0.2%\nvalue = [0.972, 0.028]\nclass = 0"] ;
129 -> 131 ;
132 [label="gini = 0.0\nsamples = 0.1%\nvalue = [1.0, 0.0]\nclass = 0"] ;
131 -> 132 ;
133 [label="gini = 0.111\nsamples = 0.1%\nvalue = [0.941, 0.059]\nclass = 0"] ;
131 -> 133 ;
134 [label="gini = 0.102\nsamples = 0.1%\nvalue = [0.946, 0.054]\nclass = 0"] ;
128 -> 134 ;
135 [label="occupation_ Machine-op-inspct <= 0.5\ngini = 0.093\nsamples = 1.9%\nvalue = [0.951, 0.049]\nclass = 0"] ;
127 -> 135 ;
136 [label="fnlwgt <= 173982.0\ngini = 0.105\nsamples = 1.7%\nvalue = [0.944, 0.056]\nclass = 0"] ;
135 -> 136 ;
137 [label="fnlwgt <= 160203.0\ngini = 0.137\nsamples = 0.8%\nvalue = [0.926, 0.074]\nclass = 0"] ;
136 -> 137 ;
138 [label="fnlwgt <= 125777.5\ngini = 0.113\nsamples = 0.7%\nvalue = [0.94, 0.06]\nclass = 0"] ;
137 -> 138 ;
139 [label="gini = 0.146\nsamples = 0.5%\nvalue = [0.92, 0.08]\nclass = 0"] ;
138 -> 139 ;
140 [label="gini = 0.0\nsamples = 0.2%\nvalue = [1.0, 0.0]\nclass = 0"] ;
138 -> 140 ;
141 [label="gini = 0.32\nsamples = 0.1%\nvalue = [0.8, 0.2]\nclass = 0"] ;
137 -> 141 ;
142 [label="age <= 41.5\ngini = 0.075\nsamples = 0.9%\nvalue = [0.961, 0.039]\nclass = 0"] ;
136 -> 142 ;
143 [label="gini = 0.159\nsamples = 0.1%\nvalue = [0.913, 0.087]\nclass = 0"] ;
142 -> 143 ;
144 [label="fnlwgt <= 229230.0\ngini = 0.058\nsamples = 0.7%\nvalue = [0.97, 0.03]\nclass = 0"] ;
142 -> 144 ;
145 [label="gini = 0.017\nsamples = 0.4%\nvalue = [0.991, 0.009]\nclass = 0"] ;
144 -> 145 ;
146 [label="gini = 0.096\nsamples = 0.4%\nvalue = [0.95, 0.05]\nclass = 0"] ;
144 -> 146 ;
147 [label="gini = 0.0\nsamples = 0.2%\nvalue = [1.0, 0.0]\nclass = 0"] ;
135 -> 147 ;
148 [label="gini = 0.0\nsamples = 0.4%\nvalue = [1.0, 0.0]\nclass = 0"] ;
126 -> 148 ;
149 [label="gini = 0.26\nsamples = 0.1%\nvalue = [0.846, 0.154]\nclass = 0"] ;
125 -> 149 ;
150 [label="fnlwgt <= 172925.5\ngini = 0.208\nsamples = 0.2%\nvalue = [0.882, 0.118]\nclass = 0"] ;
124 -> 150 ;
151 [label="gini = 0.074\nsamples = 0.1%\nvalue = [0.962, 0.038]\nclass = 0"] ;
150 -> 151 ;
152 [label="gini = 0.32\nsamples = 0.1%\nvalue = [0.8, 0.2]\nclass = 0"] ;
150 -> 152 ;
153 [label="gini = 0.0\nsamples = 0.6%\nvalue = [1.0, 0.0]\nclass = 0"] ;
123 -> 153 ;
154 [label="gini = 0.0\nsamples = 0.7%\nvalue = [1.0, 0.0]\nclass = 0"] ;
122 -> 154 ;
155 [label="gini = 0.252\nsamples = 0.1%\nvalue = [0.852, 0.148]\nclass = 0"] ;
65 -> 155 ;
156 [label="workclass_ Private <= 0.5\ngini = 0.14\nsamples = 1.1%\nvalue = [0.924, 0.076]\nclass = 0"] ;
64 -> 156 ;
157 [label="fnlwgt <= 154396.0\ngini = 0.068\nsamples = 0.4%\nvalue = [0.965, 0.035]\nclass = 0"] ;
156 -> 157 ;
158 [label="gini = 0.15\nsamples = 0.2%\nvalue = [0.918, 0.082]\nclass = 0"] ;
157 -> 158 ;
159 [label="gini = 0.0\nsamples = 0.2%\nvalue = [1.0, 0.0]\nclass = 0"] ;
157 -> 159 ;
160 [label="education.num <= 10.5\ngini = 0.173\nsamples = 0.7%\nvalue = [0.904, 0.096]\nclass = 0"] ;
156 -> 160 ;
161 [label="fnlwgt <= 79379.0\ngini = 0.147\nsamples = 0.6%\nvalue = [0.92, 0.08]\nclass = 0"] ;
160 -> 161 ;
162 [label="gini = 0.269\nsamples = 0.1%\nvalue = [0.84, 0.16]\nclass = 0"] ;
161 -> 162 ;
163 [label="age <= 53.5\ngini = 0.128\nsamples = 0.5%\nvalue = [0.931, 0.069]\nclass = 0"] ;
161 -> 163 ;
164 [label="fnlwgt <= 126767.0\ngini = 0.096\nsamples = 0.4%\nvalue = [0.949, 0.051]\nclass = 0"] ;
163 -> 164 ;
165 [label="gini = 0.0\nsamples = 0.1%\nvalue = [1.0, 0.0]\nclass = 0"] ;
164 -> 165 ;
166 [label="fnlwgt <= 185232.5\ngini = 0.122\nsamples = 0.3%\nvalue = [0.935, 0.065]\nclass = 0"] ;
164 -> 166 ;
167 [label="gini = 0.224\nsamples = 0.1%\nvalue = [0.872, 0.128]\nclass = 0"] ;
166 -> 167 ;
168 [label="fnlwgt <= 259374.0\ngini = 0.057\nsamples = 0.2%\nvalue = [0.971, 0.029]\nclass = 0"] ;
166 -> 168 ;
169 [label="gini = 0.0\nsamples = 0.1%\nvalue = [1.0, 0.0]\nclass = 0"] ;
168 -> 169 ;
170 [label="gini = 0.124\nsamples = 0.1%\nvalue = [0.933, 0.067]\nclass = 0"] ;
168 -> 170 ;
171 [label="gini = 0.234\nsamples = 0.1%\nvalue = [0.865, 0.135]\nclass = 0"] ;
163 -> 171 ;
172 [label="gini = 0.32\nsamples = 0.1%\nvalue = [0.8, 0.2]\nclass = 0"] ;
160 -> 172 ;
173 [label="sex_ Male <= 0.5\ngini = 0.195\nsamples = 0.7%\nvalue = [0.89, 0.11]\nclass = 0"] ;
63 -> 173 ;
174 [label="hours.per.week <= 39.5\ngini = 0.113\nsamples = 0.6%\nvalue = [0.94, 0.06]\nclass = 0"] ;
173 -> 174 ;
175 [label="fnlwgt <= 181679.0\ngini = 0.028\nsamples = 0.2%\nvalue = [0.986, 0.014]\nclass = 0"] ;
174 -> 175 ;
176 [label="gini = 0.0\nsamples = 0.1%\nvalue = [1.0, 0.0]\nclass = 0"] ;
175 -> 176 ;
177 [label="gini = 0.077\nsamples = 0.1%\nvalue = [0.96, 0.04]\nclass = 0"] ;
175 -> 177 ;
178 [label="education.num <= 10.5\ngini = 0.161\nsamples = 0.3%\nvalue = [0.912, 0.088]\nclass = 0"] ;
174 -> 178 ;
179 [label="marital.status_ Divorced <= 0.5\ngini = 0.086\nsamples = 0.2%\nvalue = [0.955, 0.045]\nclass = 0"] ;
178 -> 179 ;
180 [label="gini = 0.0\nsamples = 0.1%\nvalue = [1.0, 0.0]\nclass = 0"] ;
179 -> 180 ;
181 [label="gini = 0.142\nsamples = 0.1%\nvalue = [0.923, 0.077]\nclass = 0"] ;
179 -> 181 ;
182 [label="gini = 0.258\nsamples = 0.1%\nvalue = [0.848, 0.152]\nclass = 0"] ;
178 -> 182 ;
183 [label="age <= 42.5\ngini = 0.401\nsamples = 0.2%\nvalue = [0.722, 0.278]\nclass = 0"] ;
173 -> 183 ;
184 [label="gini = 0.436\nsamples = 0.1%\nvalue = [0.679, 0.321]\nclass = 0"] ;
183 -> 184 ;
185 [label="gini = 0.355\nsamples = 0.1%\nvalue = [0.769, 0.231]\nclass = 0"] ;
183 -> 185 ;
186 [label="age <= 38.5\ngini = 0.123\nsamples = 7.5%\nvalue = [0.934, 0.066]\nclass = 0"] ;
4 -> 186 ;
187 [label="age <= 25.5\ngini = 0.075\nsamples = 4.8%\nvalue = [0.961, 0.039]\nclass = 0"] ;
186 -> 187 ;
188 [label="occupation_ Exec-managerial <= 0.5\ngini = 0.019\nsamples = 1.6%\nvalue = [0.991, 0.009]\nclass = 0"] ;
187 -> 188 ;
189 [label="occupation_ Other-service <= 0.5\ngini = 0.012\nsamples = 1.5%\nvalue = [0.994, 0.006]\nclass = 0"] ;
188 -> 189 ;
190 [label="education.num <= 10.5\ngini = 0.005\nsamples = 1.3%\nvalue = [0.998, 0.002]\nclass = 0"] ;
189 -> 190 ;
191 [label="gini = 0.0\nsamples = 1.2%\nvalue = [1.0, 0.0]\nclass = 0"] ;
190 -> 191 ;
192 [label="gini = 0.054\nsamples = 0.1%\nvalue = [0.972, 0.028]\nclass = 0"] ;
190 -> 192 ;
193 [label="fnlwgt <= 165696.0\ngini = 0.061\nsamples = 0.2%\nvalue = [0.968, 0.032]\nclass = 0"] ;
189 -> 193 ;
194 [label="gini = 0.077\nsamples = 0.1%\nvalue = [0.96, 0.04]\nclass = 0"] ;
193 -> 194 ;
195 [label="gini = 0.051\nsamples = 0.1%\nvalue = [0.974, 0.026]\nclass = 0"] ;
193 -> 195 ;
196 [label="gini = 0.105\nsamples = 0.1%\nvalue = [0.944, 0.056]\nclass = 0"] ;
188 -> 196 ;
197 [label="workclass_ Self-emp-not-inc <= 0.5\ngini = 0.102\nsamples = 3.2%\nvalue = [0.946, 0.054]\nclass = 0"] ;
187 -> 197 ;
198 [label="education.num <= 10.5\ngini = 0.088\nsamples = 2.9%\nvalue = [0.954, 0.046]\nclass = 0"] ;
197 -> 198 ;
199 [label="relationship_ Not-in-family <= 0.5\ngini = 0.07\nsamples = 2.5%\nvalue = [0.964, 0.036]\nclass = 0"] ;
198 -> 199 ;
200 [label="hours.per.week <= 69.0\ngini = 0.02\nsamples = 0.9%\nvalue = [0.99, 0.01]\nclass = 0"] ;
199 -> 200 ;
201 [label="occupation_ Sales <= 0.5\ngini = 0.007\nsamples = 0.8%\nvalue = [0.996, 0.004]\nclass = 0"] ;
200 -> 201 ;
202 [label="gini = 0.0\nsamples = 0.7%\nvalue = [1.0, 0.0]\nclass = 0"] ;
201 -> 202 ;
203 [label="gini = 0.069\nsamples = 0.1%\nvalue = [0.964, 0.036]\nclass = 0"] ;
201 -> 203 ;
204 [label="gini = 0.117\nsamples = 0.1%\nvalue = [0.938, 0.062]\nclass = 0"] ;
200 -> 204 ;
205 [label="workclass_ Private <= 0.5\ngini = 0.099\nsamples = 1.5%\nvalue = [0.948, 0.052]\nclass = 0"] ;
199 -> 205 ;
206 [label="fnlwgt <= 177620.5\ngini = 0.177\nsamples = 0.2%\nvalue = [0.902, 0.098]\nclass = 0"] ;
205 -> 206 ;
207 [label="gini = 0.0\nsamples = 0.1%\nvalue = [1.0, 0.0]\nclass = 0"] ;
206 -> 207 ;
208 [label="gini = 0.328\nsamples = 0.1%\nvalue = [0.793, 0.207]\nclass = 0"] ;
206 -> 208 ;
209 [label="fnlwgt <= 154620.0\ngini = 0.087\nsamples = 1.3%\nvalue = [0.954, 0.046]\nclass = 0"] ;
205 -> 209 ;
210 [label="education.num <= 8.5\ngini = 0.133\nsamples = 0.5%\nvalue = [0.929, 0.071]\nclass = 0"] ;
209 -> 210 ;
211 [label="gini = 0.311\nsamples = 0.1%\nvalue = [0.808, 0.192]\nclass = 0"] ;
210 -> 211 ;
212 [label="fnlwgt <= 133128.5\ngini = 0.094\nsamples = 0.4%\nvalue = [0.951, 0.049]\nclass = 0"] ;
210 -> 212 ;
213 [label="hours.per.week <= 49.0\ngini = 0.05\nsamples = 0.4%\nvalue = [0.974, 0.026]\nclass = 0"] ;
212 -> 213 ;
214 [label="gini = 0.105\nsamples = 0.1%\nvalue = [0.944, 0.056]\nclass = 0"] ;
213 -> 214 ;
215 [label="fnlwgt <= 105806.0\ngini = 0.024\nsamples = 0.2%\nvalue = [0.988, 0.012]\nclass = 0"] ;
213 -> 215 ;
216 [label="gini = 0.0\nsamples = 0.2%\nvalue = [1.0, 0.0]\nclass = 0"] ;
215 -> 216 ;
217 [label="gini = 0.077\nsamples = 0.1%\nvalue = [0.96, 0.04]\nclass = 0"] ;
215 -> 217 ;
218 [label="gini = 0.269\nsamples = 0.1%\nvalue = [0.84, 0.16]\nclass = 0"] ;
212 -> 218 ;
219 [label="occupation_ Sales <= 0.5\ngini = 0.057\nsamples = 0.8%\nvalue = [0.97, 0.03]\nclass = 0"] ;
209 -> 219 ;
220 [label="fnlwgt <= 367498.0\ngini = 0.043\nsamples = 0.7%\nvalue = [0.978, 0.022]\nclass = 0"] ;
219 -> 220 ;
221 [label="sex_ Male <= 0.5\ngini = 0.029\nsamples = 0.6%\nvalue = [0.985, 0.015]\nclass = 0"] ;
220 -> 221 ;
222 [label="gini = 0.08\nsamples = 0.1%\nvalue = [0.958, 0.042]\nclass = 0"] ;
221 -> 222 ;
223 [label="occupation_ Craft-repair <= 0.5\ngini = 0.013\nsamples = 0.5%\nvalue = [0.994, 0.006]\nclass = 0"] ;
221 -> 223 ;
224 [label="gini = 0.0\nsamples = 0.4%\nvalue = [1.0, 0.0]\nclass = 0"] ;
223 -> 224 ;
225 [label="gini = 0.048\nsamples = 0.1%\nvalue = [0.976, 0.024]\nclass = 0"] ;
223 -> 225 ;
226 [label="gini = 0.147\nsamples = 0.1%\nvalue = [0.92, 0.08]\nclass = 0"] ;
220 -> 226 ;
227 [label="gini = 0.13\nsamples = 0.1%\nvalue = [0.93, 0.07]\nclass = 0"] ;
219 -> 227 ;
228 [label="sex_ Male <= 0.5\ngini = 0.187\nsamples = 0.4%\nvalue = [0.896, 0.104]\nclass = 0"] ;
198 -> 228 ;
229 [label="marital.status_ Never-married <= 0.5\ngini = 0.074\nsamples = 0.2%\nvalue = [0.962, 0.038]\nclass = 0"] ;
228 -> 229 ;
230 [label="gini = 0.0\nsamples = 0.1%\nvalue = [1.0, 0.0]\nclass = 0"] ;
229 -> 230 ;
231 [label="gini = 0.142\nsamples = 0.1%\nvalue = [0.923, 0.077]\nclass = 0"] ;
229 -> 231 ;
232 [label="marital.status_ Never-married <= 0.5\ngini = 0.25\nsamples = 0.3%\nvalue = [0.854, 0.146]\nclass = 0"] ;
228 -> 232 ;
233 [label="gini = 0.384\nsamples = 0.1%\nvalue = [0.741, 0.259]\nclass = 0"] ;
232 -> 233 ;
234 [label="fnlwgt <= 192235.0\ngini = 0.165\nsamples = 0.2%\nvalue = [0.909, 0.091]\nclass = 0"] ;
232 -> 234 ;
235 [label="gini = 0.064\nsamples = 0.1%\nvalue = [0.967, 0.033]\nclass = 0"] ;
234 -> 235 ;
236 [label="gini = 0.269\nsamples = 0.1%\nvalue = [0.84, 0.16]\nclass = 0"] ;
234 -> 236 ;
237 [label="fnlwgt <= 228599.5\ngini = 0.23\nsamples = 0.3%\nvalue = [0.867, 0.133]\nclass = 0"] ;
197 -> 237 ;
238 [label="fnlwgt <= 115661.5\ngini = 0.173\nsamples = 0.2%\nvalue = [0.904, 0.096]\nclass = 0"] ;
237 -> 238 ;
239 [label="gini = 0.278\nsamples = 0.1%\nvalue = [0.833, 0.167]\nclass = 0"] ;
238 -> 239 ;
240 [label="gini = 0.053\nsamples = 0.1%\nvalue = [0.973, 0.027]\nclass = 0"] ;
238 -> 240 ;
241 [label="gini = 0.365\nsamples = 0.1%\nvalue = [0.76, 0.24]\nclass = 0"] ;
237 -> 241 ;
242 [label="sex_ Male <= 0.5\ngini = 0.2\nsamples = 2.7%\nvalue = [0.887, 0.113]\nclass = 0"] ;
186 -> 242 ;
243 [label="education.num <= 9.5\ngini = 0.124\nsamples = 1.3%\nvalue = [0.934, 0.066]\nclass = 0"] ;
242 -> 243 ;
244 [label="hours.per.week <= 49.5\ngini = 0.071\nsamples = 0.7%\nvalue = [0.963, 0.037]\nclass = 0"] ;
243 -> 244 ;
245 [label="age <= 43.5\ngini = 0.018\nsamples = 0.3%\nvalue = [0.991, 0.009]\nclass = 0"] ;
244 -> 245 ;
246 [label="gini = 0.071\nsamples = 0.1%\nvalue = [0.963, 0.037]\nclass = 0"] ;
245 -> 246 ;
247 [label="gini = 0.0\nsamples = 0.3%\nvalue = [1.0, 0.0]\nclass = 0"] ;
245 -> 247 ;
248 [label="hours.per.week <= 51.0\ngini = 0.126\nsamples = 0.3%\nvalue = [0.933, 0.067]\nclass = 0"] ;
244 -> 248 ;
249 [label="gini = 0.224\nsamples = 0.1%\nvalue = [0.872, 0.128]\nclass = 0"] ;
248 -> 249 ;
250 [label="marital.status_ Divorced <= 0.5\ngini = 0.06\nsamples = 0.2%\nvalue = [0.969, 0.031]\nclass = 0"] ;
248 -> 250 ;
251 [label="gini = 0.124\nsamples = 0.1%\nvalue = [0.933, 0.067]\nclass = 0"] ;
250 -> 251 ;
252 [label="gini = 0.0\nsamples = 0.1%\nvalue = [1.0, 0.0]\nclass = 0"] ;
250 -> 252 ;
253 [label="hours.per.week <= 56.5\ngini = 0.175\nsamples = 0.6%\nvalue = [0.903, 0.097]\nclass = 0"] ;
243 -> 253 ;
254 [label="hours.per.week <= 49.5\ngini = 0.211\nsamples = 0.5%\nvalue = [0.88, 0.12]\nclass = 0"] ;
253 -> 254 ;
255 [label="relationship_ Unmarried <= 0.5\ngini = 0.133\nsamples = 0.3%\nvalue = [0.929, 0.071]\nclass = 0"] ;
254 -> 255 ;
256 [label="gini = 0.231\nsamples = 0.1%\nvalue = [0.867, 0.133]\nclass = 0"] ;
255 -> 256 ;
257 [label="age <= 45.5\ngini = 0.037\nsamples = 0.2%\nvalue = [0.981, 0.019]\nclass = 0"] ;
255 -> 257 ;
258 [label="gini = 0.0\nsamples = 0.1%\nvalue = [1.0, 0.0]\nclass = 0"] ;
257 -> 258 ;
259 [label="gini = 0.077\nsamples = 0.1%\nvalue = [0.96, 0.04]\nclass = 0"] ;
257 -> 259 ;
260 [label="age <= 46.5\ngini = 0.306\nsamples = 0.2%\nvalue = [0.812, 0.188]\nclass = 0"] ;
254 -> 260 ;
261 [label="gini = 0.198\nsamples = 0.1%\nvalue = [0.889, 0.111]\nclass = 0"] ;
260 -> 261 ;
262 [label="gini = 0.397\nsamples = 0.1%\nvalue = [0.727, 0.273]\nclass = 0"] ;
260 -> 262 ;
263 [label="gini = 0.0\nsamples = 0.1%\nvalue = [1.0, 0.0]\nclass = 0"] ;
253 -> 263 ;
264 [label="marital.status_ Never-married <= 0.5\ngini = 0.262\nsamples = 1.4%\nvalue = [0.845, 0.155]\nclass = 0"] ;
242 -> 264 ;
265 [label="education.num <= 9.5\ngini = 0.309\nsamples = 1.0%\nvalue = [0.809, 0.191]\nclass = 0"] ;
264 -> 265 ;
266 [label="age <= 51.5\ngini = 0.234\nsamples = 0.6%\nvalue = [0.865, 0.135]\nclass = 0"] ;
265 -> 266 ;
267 [label="hours.per.week <= 58.0\ngini = 0.127\nsamples = 0.4%\nvalue = [0.932, 0.068]\nclass = 0"] ;
266 -> 267 ;
268 [label="age <= 43.5\ngini = 0.069\nsamples = 0.3%\nvalue = [0.964, 0.036]\nclass = 0"] ;
267 -> 268 ;
269 [label="gini = 0.0\nsamples = 0.1%\nvalue = [1.0, 0.0]\nclass = 0"] ;
268 -> 269 ;
270 [label="gini = 0.122\nsamples = 0.1%\nvalue = [0.935, 0.065]\nclass = 0"] ;
268 -> 270 ;
271 [label="gini = 0.257\nsamples = 0.1%\nvalue = [0.848, 0.152]\nclass = 0"] ;
267 -> 271 ;
272 [label="education.num <= 8.5\ngini = 0.365\nsamples = 0.2%\nvalue = [0.76, 0.24]\nclass = 0"] ;
266 -> 272 ;
273 [label="gini = 0.137\nsamples = 0.1%\nvalue = [0.926, 0.074]\nclass = 0"] ;
272 -> 273 ;
274 [label="gini = 0.444\nsamples = 0.1%\nvalue = [0.667, 0.333]\nclass = 0"] ;
272 -> 274 ;
275 [label="hours.per.week <= 45.5\ngini = 0.39\nsamples = 0.4%\nvalue = [0.734, 0.266]\nclass = 0"] ;
265 -> 275 ;
276 [label="gini = 0.21\nsamples = 0.1%\nvalue = [0.881, 0.119]\nclass = 0"] ;
275 -> 276 ;
277 [label="age <= 43.5\ngini = 0.44\nsamples = 0.3%\nvalue = [0.673, 0.327]\nclass = 0"] ;
275 -> 277 ;
278 [label="gini = 0.496\nsamples = 0.1%\nvalue = [0.543, 0.457]\nclass = 0"] ;
277 -> 278 ;
279 [label="fnlwgt <= 176137.5\ngini = 0.382\nsamples = 0.2%\nvalue = [0.742, 0.258]\nclass = 0"] ;
277 -> 279 ;
280 [label="gini = 0.266\nsamples = 0.1%\nvalue = [0.842, 0.158]\nclass = 0"] ;
279 -> 280 ;
281 [label="gini = 0.477\nsamples = 0.1%\nvalue = [0.607, 0.393]\nclass = 0"] ;
279 -> 281 ;
282 [label="fnlwgt <= 246359.5\ngini = 0.116\nsamples = 0.4%\nvalue = [0.938, 0.062]\nclass = 0"] ;
264 -> 282 ;
283 [label="fnlwgt <= 146135.0\ngini = 0.073\nsamples = 0.3%\nvalue = [0.962, 0.038]\nclass = 0"] ;
282 -> 283 ;
284 [label="fnlwgt <= 73943.0\ngini = 0.032\nsamples = 0.2%\nvalue = [0.984, 0.016]\nclass = 0"] ;
283 -> 284 ;
285 [label="gini = 0.077\nsamples = 0.1%\nvalue = [0.96, 0.04]\nclass = 0"] ;
284 -> 285 ;
286 [label="gini = 0.0\nsamples = 0.1%\nvalue = [1.0, 0.0]\nclass = 0"] ;
284 -> 286 ;
287 [label="gini = 0.13\nsamples = 0.1%\nvalue = [0.93, 0.07]\nclass = 0"] ;
283 -> 287 ;
288 [label="gini = 0.269\nsamples = 0.1%\nvalue = [0.84, 0.16]\nclass = 0"] ;
282 -> 288 ;
289 [label="capital.loss <= 2391.5\ngini = 0.499\nsamples = 0.2%\nvalue = [0.526, 0.474]\nclass = 0"] ;
3 -> 289 ;
290 [label="gini = 0.428\nsamples = 0.1%\nvalue = [0.69, 0.31]\nclass = 0"] ;
289 -> 290 ;
291 [label="gini = 0.459\nsamples = 0.1%\nvalue = [0.357, 0.643]\nclass = 1"] ;
289 -> 291 ;
292 [label="hours.per.week <= 43.5\ngini = 0.253\nsamples = 10.5%\nvalue = [0.851, 0.149]\nclass = 0"] ;
2 -> 292 ;
293 [label="age <= 33.5\ngini = 0.161\nsamples = 7.1%\nvalue = [0.912, 0.088]\nclass = 0"] ;
292 -> 293 ;
294 [label="capital.loss <= 1486.0\ngini = 0.046\nsamples = 3.6%\nvalue = [0.976, 0.024]\nclass = 0"] ;
293 -> 294 ;
295 [label="age <= 29.5\ngini = 0.039\nsamples = 3.5%\nvalue = [0.98, 0.02]\nclass = 0"] ;
294 -> 295 ;
296 [label="marital.status_ Never-married <= 0.5\ngini = 0.022\nsamples = 2.8%\nvalue = [0.989, 0.011]\nclass = 0"] ;
295 -> 296 ;
297 [label="gini = 0.133\nsamples = 0.1%\nvalue = [0.929, 0.071]\nclass = 0"] ;
296 -> 297 ;
298 [label="fnlwgt <= 41173.5\ngini = 0.018\nsamples = 2.7%\nvalue = [0.991, 0.009]\nclass = 0"] ;
296 -> 298 ;
299 [label="gini = 0.105\nsamples = 0.1%\nvalue = [0.944, 0.056]\nclass = 0"] ;
298 -> 299 ;
300 [label="education.num <= 13.5\ngini = 0.014\nsamples = 2.6%\nvalue = [0.993, 0.007]\nclass = 0"] ;
298 -> 300 ;
301 [label="relationship_ Unmarried <= 0.5\ngini = 0.01\nsamples = 2.3%\nvalue = [0.995, 0.005]\nclass = 0"] ;
300 -> 301 ;
302 [label="occupation_ Adm-clerical <= 0.5\ngini = 0.008\nsamples = 2.3%\nvalue = [0.996, 0.004]\nclass = 0"] ;
301 -> 302 ;
303 [label="fnlwgt <= 323996.5\ngini = 0.003\nsamples = 1.8%\nvalue = [0.998, 0.002]\nclass = 0"] ;
302 -> 303 ;
304 [label="gini = 0.0\nsamples = 1.6%\nvalue = [1.0, 0.0]\nclass = 0"] ;
303 -> 304 ;
305 [label="fnlwgt <= 363007.0\ngini = 0.026\nsamples = 0.2%\nvalue = [0.987, 0.013]\nclass = 0"] ;
303 -> 305 ;
306 [label="gini = 0.077\nsamples = 0.1%\nvalue = [0.96, 0.04]\nclass = 0"] ;
305 -> 306 ;
307 [label="gini = 0.0\nsamples = 0.2%\nvalue = [1.0, 0.0]\nclass = 0"] ;
305 -> 307 ;
308 [label="age <= 24.5\ngini = 0.027\nsamples = 0.5%\nvalue = [0.986, 0.014]\nclass = 0"] ;
302 -> 308 ;
309 [label="gini = 0.0\nsamples = 0.2%\nvalue = [1.0, 0.0]\nclass = 0"] ;
308 -> 309 ;
310 [label="age <= 26.5\ngini = 0.049\nsamples = 0.2%\nvalue = [0.975, 0.025]\nclass = 0"] ;
308 -> 310 ;
311 [label="gini = 0.089\nsamples = 0.1%\nvalue = [0.953, 0.047]\nclass = 0"] ;
310 -> 311 ;
312 [label="gini = 0.0\nsamples = 0.1%\nvalue = [1.0, 0.0]\nclass = 0"] ;
310 -> 312 ;
313 [label="gini = 0.077\nsamples = 0.1%\nvalue = [0.96, 0.04]\nclass = 0"] ;
301 -> 313 ;
314 [label="sex_ Male <= 0.5\ngini = 0.044\nsamples = 0.3%\nvalue = [0.978, 0.022]\nclass = 0"] ;
300 -> 314 ;
315 [label="gini = 0.083\nsamples = 0.1%\nvalue = [0.957, 0.043]\nclass = 0"] ;
314 -> 315 ;
316 [label="gini = 0.0\nsamples = 0.1%\nvalue = [1.0, 0.0]\nclass = 0"] ;
314 -> 316 ;
317 [label="fnlwgt <= 182128.0\ngini = 0.103\nsamples = 0.7%\nvalue = [0.946, 0.054]\nclass = 0"] ;
295 -> 317 ;
318 [label="sex_ Male <= 0.5\ngini = 0.165\nsamples = 0.4%\nvalue = [0.909, 0.091]\nclass = 0"] ;
317 -> 318 ;
319 [label="fnlwgt <= 139604.0\ngini = 0.061\nsamples = 0.2%\nvalue = [0.969, 0.031]\nclass = 0"] ;
318 -> 319 ;
320 [label="gini = 0.0\nsamples = 0.1%\nvalue = [1.0, 0.0]\nclass = 0"] ;
319 -> 320 ;
321 [label="gini = 0.147\nsamples = 0.1%\nvalue = [0.92, 0.08]\nclass = 0"] ;
319 -> 321 ;
322 [label="occupation_ Prof-specialty <= 0.5\ngini = 0.251\nsamples = 0.2%\nvalue = [0.853, 0.147]\nclass = 0"] ;
318 -> 322 ;
323 [label="gini = 0.169\nsamples = 0.1%\nvalue = [0.907, 0.093]\nclass = 0"] ;
322 -> 323 ;
324 [label="gini = 0.365\nsamples = 0.1%\nvalue = [0.76, 0.24]\nclass = 0"] ;
322 -> 324 ;
325 [label="fnlwgt <= 197675.0\ngini = 0.019\nsamples = 0.3%\nvalue = [0.991, 0.009]\nclass = 0"] ;
317 -> 325 ;
326 [label="gini = 0.077\nsamples = 0.1%\nvalue = [0.96, 0.04]\nclass = 0"] ;
325 -> 326 ;
327 [label="gini = 0.0\nsamples = 0.3%\nvalue = [1.0, 0.0]\nclass = 0"] ;
325 -> 327 ;
328 [label="gini = 0.302\nsamples = 0.1%\nvalue = [0.815, 0.185]\nclass = 0"] ;
294 -> 328 ;
329 [label="education.num <= 14.5\ngini = 0.263\nsamples = 3.4%\nvalue = [0.844, 0.156]\nclass = 0"] ;
293 -> 329 ;
330 [label="capital.loss <= 1748.0\ngini = 0.232\nsamples = 3.2%\nvalue = [0.866, 0.134]\nclass = 0"] ;
329 -> 330 ;
331 [label="hours.per.week <= 31.0\ngini = 0.222\nsamples = 3.1%\nvalue = [0.873, 0.127]\nclass = 0"] ;
330 -> 331 ;
332 [label="fnlwgt <= 90042.5\ngini = 0.073\nsamples = 0.5%\nvalue = [0.962, 0.038]\nclass = 0"] ;
331 -> 332 ;
333 [label="gini = 0.18\nsamples = 0.1%\nvalue = [0.9, 0.1]\nclass = 0"] ;
332 -> 333 ;
334 [label="education.num <= 13.5\ngini = 0.045\nsamples = 0.4%\nvalue = [0.977, 0.023]\nclass = 0"] ;
332 -> 334 ;
335 [label="occupation_ Prof-specialty <= 0.5\ngini = 0.022\nsamples = 0.3%\nvalue = [0.989, 0.011]\nclass = 0"] ;
334 -> 335 ;
336 [label="gini = 0.0\nsamples = 0.2%\nvalue = [1.0, 0.0]\nclass = 0"] ;
335 -> 336 ;
337 [label="gini = 0.074\nsamples = 0.1%\nvalue = [0.962, 0.038]\nclass = 0"] ;
335 -> 337 ;
338 [label="gini = 0.097\nsamples = 0.1%\nvalue = [0.949, 0.051]\nclass = 0"] ;
334 -> 338 ;
339 [label="age <= 46.5\ngini = 0.247\nsamples = 2.6%\nvalue = [0.856, 0.144]\nclass = 0"] ;
331 -> 339 ;
340 [label="workclass_ Private <= 0.5\ngini = 0.198\nsamples = 1.7%\nvalue = [0.889, 0.111]\nclass = 0"] ;
339 -> 340 ;
341 [label="relationship_ Not-in-family <= 0.5\ngini = 0.127\nsamples = 0.7%\nvalue = [0.932, 0.068]\nclass = 0"] ;
340 -> 341 ;
342 [label="fnlwgt <= 109573.0\ngini = 0.023\nsamples = 0.3%\nvalue = [0.989, 0.011]\nclass = 0"] ;
341 -> 342 ;
343 [label="gini = 0.077\nsamples = 0.1%\nvalue = [0.96, 0.04]\nclass = 0"] ;
342 -> 343 ;
344 [label="gini = 0.0\nsamples = 0.2%\nvalue = [1.0, 0.0]\nclass = 0"] ;
342 -> 344 ;
345 [label="fnlwgt <= 127517.0\ngini = 0.187\nsamples = 0.4%\nvalue = [0.896, 0.104]\nclass = 0"] ;
341 -> 345 ;
346 [label="gini = 0.0\nsamples = 0.1%\nvalue = [1.0, 0.0]\nclass = 0"] ;
345 -> 346 ;
347 [label="fnlwgt <= 228964.5\ngini = 0.254\nsamples = 0.3%\nvalue = [0.851, 0.149]\nclass = 0"] ;
345 -> 347 ;
348 [label="fnlwgt <= 190229.0\ngini = 0.316\nsamples = 0.2%\nvalue = [0.803, 0.197]\nclass = 0"] ;
347 -> 348 ;
349 [label="gini = 0.278\nsamples = 0.1%\nvalue = [0.833, 0.167]\nclass = 0"] ;
348 -> 349 ;
350 [label="gini = 0.365\nsamples = 0.1%\nvalue = [0.76, 0.24]\nclass = 0"] ;
348 -> 350 ;
351 [label="gini = 0.114\nsamples = 0.1%\nvalue = [0.939, 0.061]\nclass = 0"] ;
347 -> 351 ;
352 [label="occupation_ Prof-specialty <= 0.5\ngini = 0.241\nsamples = 1.0%\nvalue = [0.86, 0.14]\nclass = 0"] ;
340 -> 352 ;
353 [label="education.num <= 13.5\ngini = 0.185\nsamples = 0.7%\nvalue = [0.897, 0.103]\nclass = 0"] ;
352 -> 353 ;
354 [label="age <= 42.5\ngini = 0.131\nsamples = 0.6%\nvalue = [0.93, 0.07]\nclass = 0"] ;
353 -> 354 ;
355 [label="occupation_ Sales <= 0.5\ngini = 0.067\nsamples = 0.4%\nvalue = [0.966, 0.034]\nclass = 0"] ;
354 -> 355 ;
356 [label="occupation_ Exec-managerial <= 0.5\ngini = 0.034\nsamples = 0.4%\nvalue = [0.983, 0.017]\nclass = 0"] ;
355 -> 356 ;
357 [label="gini = 0.0\nsamples = 0.2%\nvalue = [1.0, 0.0]\nclass = 0"] ;
356 -> 357 ;
358 [label="gini = 0.1\nsamples = 0.1%\nvalue = [0.947, 0.053]\nclass = 0"] ;
356 -> 358 ;
359 [label="gini = 0.18\nsamples = 0.1%\nvalue = [0.9, 0.1]\nclass = 0"] ;
355 -> 359 ;
360 [label="marital.status_ Divorced <= 0.5\ngini = 0.278\nsamples = 0.2%\nvalue = [0.833, 0.167]\nclass = 0"] ;
354 -> 360 ;
361 [label="gini = 0.211\nsamples = 0.1%\nvalue = [0.88, 0.12]\nclass = 0"] ;
360 -> 361 ;
362 [label="gini = 0.328\nsamples = 0.1%\nvalue = [0.793, 0.207]\nclass = 0"] ;
360 -> 362 ;
363 [label="gini = 0.422\nsamples = 0.1%\nvalue = [0.697, 0.303]\nclass = 0"] ;
353 -> 363 ;
364 [label="marital.status_ Divorced <= 0.5\ngini = 0.344\nsamples = 0.3%\nvalue = [0.779, 0.221]\nclass = 0"] ;
352 -> 364 ;
365 [label="age <= 39.5\ngini = 0.397\nsamples = 0.2%\nvalue = [0.727, 0.273]\nclass = 0"] ;
364 -> 365 ;
366 [label="gini = 0.439\nsamples = 0.1%\nvalue = [0.675, 0.325]\nclass = 0"] ;
365 -> 366 ;
367 [label="gini = 0.339\nsamples = 0.1%\nvalue = [0.784, 0.216]\nclass = 0"] ;
365 -> 367 ;
368 [label="gini = 0.137\nsamples = 0.1%\nvalue = [0.926, 0.074]\nclass = 0"] ;
364 -> 368 ;
369 [label="age <= 63.5\ngini = 0.329\nsamples = 0.9%\nvalue = [0.792, 0.208]\nclass = 0"] ;
339 -> 369 ;
370 [label="age <= 59.5\ngini = 0.348\nsamples = 0.8%\nvalue = [0.776, 0.224]\nclass = 0"] ;
369 -> 370 ;
371 [label="sex_ Male <= 0.5\ngini = 0.326\nsamples = 0.7%\nvalue = [0.795, 0.205]\nclass = 0"] ;
370 -> 371 ;
372 [label="workclass_ Local-gov <= 0.5\ngini = 0.267\nsamples = 0.4%\nvalue = [0.841, 0.159]\nclass = 0"] ;
371 -> 372 ;
373 [label="fnlwgt <= 168590.5\ngini = 0.232\nsamples = 0.3%\nvalue = [0.866, 0.134]\nclass = 0"] ;
372 -> 373 ;
374 [label="age <= 51.5\ngini = 0.288\nsamples = 0.2%\nvalue = [0.825, 0.175]\nclass = 0"] ;
373 -> 374 ;
375 [label="gini = 0.231\nsamples = 0.1%\nvalue = [0.867, 0.133]\nclass = 0"] ;
374 -> 375 ;
376 [label="gini = 0.334\nsamples = 0.1%\nvalue = [0.788, 0.212]\nclass = 0"] ;
374 -> 376 ;
377 [label="gini = 0.15\nsamples = 0.2%\nvalue = [0.918, 0.082]\nclass = 0"] ;
373 -> 377 ;
378 [label="gini = 0.367\nsamples = 0.1%\nvalue = [0.758, 0.242]\nclass = 0"] ;
372 -> 378 ;
379 [label="fnlwgt <= 199636.5\ngini = 0.404\nsamples = 0.3%\nvalue = [0.719, 0.281]\nclass = 0"] ;
371 -> 379 ;
380 [label="age <= 49.5\ngini = 0.35\nsamples = 0.2%\nvalue = [0.774, 0.226]\nclass = 0"] ;
379 -> 380 ;
381 [label="gini = 0.428\nsamples = 0.1%\nvalue = [0.69, 0.31]\nclass = 0"] ;
380 -> 381 ;
382 [label="gini = 0.257\nsamples = 0.1%\nvalue = [0.848, 0.152]\nclass = 0"] ;
380 -> 382 ;
383 [label="gini = 0.483\nsamples = 0.1%\nvalue = [0.593, 0.407]\nclass = 0"] ;
379 -> 383 ;
384 [label="gini = 0.48\nsamples = 0.1%\nvalue = [0.6, 0.4]\nclass = 0"] ;
370 -> 384 ;
385 [label="gini = 0.124\nsamples = 0.1%\nvalue = [0.933, 0.067]\nclass = 0"] ;
369 -> 385 ;
386 [label="gini = 0.48\nsamples = 0.1%\nvalue = [0.6, 0.4]\nclass = 0"] ;
330 -> 386 ;
387 [label="sex_ Male <= 0.5\ngini = 0.483\nsamples = 0.3%\nvalue = [0.593, 0.407]\nclass = 0"] ;
329 -> 387 ;
388 [label="education.num <= 15.5\ngini = 0.38\nsamples = 0.2%\nvalue = [0.745, 0.255]\nclass = 0"] ;
387 -> 388 ;
389 [label="gini = 0.211\nsamples = 0.1%\nvalue = [0.88, 0.12]\nclass = 0"] ;
388 -> 389 ;
390 [label="gini = 0.473\nsamples = 0.1%\nvalue = [0.615, 0.385]\nclass = 0"] ;
388 -> 390 ;
391 [label="gini = 0.48\nsamples = 0.1%\nvalue = [0.4, 0.6]\nclass = 1"] ;
387 -> 391 ;
392 [label="age <= 27.5\ngini = 0.398\nsamples = 3.4%\nvalue = [0.726, 0.274]\nclass = 0"] ;
292 -> 392 ;
393 [label="age <= 24.5\ngini = 0.074\nsamples = 0.6%\nvalue = [0.962, 0.038]\nclass = 0"] ;
392 -> 393 ;
394 [label="gini = 0.0\nsamples = 0.2%\nvalue = [1.0, 0.0]\nclass = 0"] ;
393 -> 394 ;
395 [label="hours.per.week <= 53.5\ngini = 0.113\nsamples = 0.4%\nvalue = [0.94, 0.06]\nclass = 0"] ;
393 -> 395 ;
396 [label="hours.per.week <= 45.5\ngini = 0.061\nsamples = 0.3%\nvalue = [0.968, 0.032]\nclass = 0"] ;
395 -> 396 ;
397 [label="gini = 0.145\nsamples = 0.1%\nvalue = [0.921, 0.079]\nclass = 0"] ;
396 -> 397 ;
398 [label="gini = 0.0\nsamples = 0.2%\nvalue = [1.0, 0.0]\nclass = 0"] ;
396 -> 398 ;
399 [label="gini = 0.229\nsamples = 0.1%\nvalue = [0.868, 0.132]\nclass = 0"] ;
395 -> 399 ;
400 [label="occupation_ Exec-managerial <= 0.5\ngini = 0.442\nsamples = 2.8%\nvalue = [0.671, 0.329]\nclass = 0"] ;
392 -> 400 ;
401 [label="education.num <= 14.5\ngini = 0.406\nsamples = 2.1%\nvalue = [0.717, 0.283]\nclass = 0"] ;
400 -> 401 ;
402 [label="sex_ Male <= 0.5\ngini = 0.367\nsamples = 1.7%\nvalue = [0.758, 0.242]\nclass = 0"] ;
401 -> 402 ;
403 [label="fnlwgt <= 220353.0\ngini = 0.267\nsamples = 0.8%\nvalue = [0.841, 0.159]\nclass = 0"] ;
402 -> 403 ;
404 [label="workclass_ Local-gov <= 0.5\ngini = 0.204\nsamples = 0.6%\nvalue = [0.885, 0.115]\nclass = 0"] ;
403 -> 404 ;
405 [label="hours.per.week <= 49.0\ngini = 0.258\nsamples = 0.4%\nvalue = [0.848, 0.152]\nclass = 0"] ;
404 -> 405 ;
406 [label="gini = 0.049\nsamples = 0.1%\nvalue = [0.975, 0.025]\nclass = 0"] ;
405 -> 406 ;
407 [label="fnlwgt <= 100439.5\ngini = 0.334\nsamples = 0.3%\nvalue = [0.788, 0.212]\nclass = 0"] ;
405 -> 407 ;
408 [label="gini = 0.147\nsamples = 0.1%\nvalue = [0.92, 0.08]\nclass = 0"] ;
407 -> 408 ;
409 [label="fnlwgt <= 173155.0\ngini = 0.391\nsamples = 0.2%\nvalue = [0.733, 0.267]\nclass = 0"] ;
407 -> 409 ;
410 [label="gini = 0.452\nsamples = 0.1%\nvalue = [0.655, 0.345]\nclass = 0"] ;
409 -> 410 ;
411 [label="gini = 0.312\nsamples = 0.1%\nvalue = [0.806, 0.194]\nclass = 0"] ;
409 -> 411 ;
412 [label="fnlwgt <= 139161.5\ngini = 0.068\nsamples = 0.2%\nvalue = [0.965, 0.035]\nclass = 0"] ;
404 -> 412 ;
413 [label="gini = 0.0\nsamples = 0.1%\nvalue = [1.0, 0.0]\nclass = 0"] ;
412 -> 413 ;
414 [label="gini = 0.147\nsamples = 0.1%\nvalue = [0.92, 0.08]\nclass = 0"] ;
412 -> 414 ;
415 [label="marital.status_ Never-married <= 0.5\ngini = 0.396\nsamples = 0.2%\nvalue = [0.729, 0.271]\nclass = 0"] ;
403 -> 415 ;
416 [label="gini = 0.452\nsamples = 0.1%\nvalue = [0.655, 0.345]\nclass = 0"] ;
415 -> 416 ;
417 [label="gini = 0.343\nsamples = 0.1%\nvalue = [0.78, 0.22]\nclass = 0"] ;
415 -> 417 ;
418 [label="occupation_ Sales <= 0.5\ngini = 0.428\nsamples = 1.0%\nvalue = [0.69, 0.31]\nclass = 0"] ;
402 -> 418 ;
419 [label="age <= 34.5\ngini = 0.393\nsamples = 0.7%\nvalue = [0.731, 0.269]\nclass = 0"] ;
418 -> 419 ;
420 [label="fnlwgt <= 205903.5\ngini = 0.323\nsamples = 0.3%\nvalue = [0.798, 0.202]\nclass = 0"] ;
419 -> 420 ;
421 [label="workclass_ Private <= 0.5\ngini = 0.26\nsamples = 0.2%\nvalue = [0.846, 0.154]\nclass = 0"] ;
420 -> 421 ;
422 [label="gini = 0.142\nsamples = 0.1%\nvalue = [0.923, 0.077]\nclass = 0"] ;
421 -> 422 ;
423 [label="gini = 0.355\nsamples = 0.1%\nvalue = [0.769, 0.231]\nclass = 0"] ;
421 -> 423 ;
424 [label="gini = 0.387\nsamples = 0.1%\nvalue = [0.738, 0.262]\nclass = 0"] ;
420 -> 424 ;
425 [label="age <= 53.0\ngini = 0.435\nsamples = 0.4%\nvalue = [0.68, 0.32]\nclass = 0"] ;
419 -> 425 ;
426 [label="fnlwgt <= 115649.5\ngini = 0.467\nsamples = 0.3%\nvalue = [0.629, 0.371]\nclass = 0"] ;
425 -> 426 ;
427 [label="gini = 0.368\nsamples = 0.1%\nvalue = [0.757, 0.243]\nclass = 0"] ;
426 -> 427 ;
428 [label="fnlwgt <= 207489.5\ngini = 0.495\nsamples = 0.2%\nvalue = [0.55, 0.45]\nclass = 0"] ;
426 -> 428 ;
429 [label="gini = 0.464\nsamples = 0.1%\nvalue = [0.367, 0.633]\nclass = 1"] ;
428 -> 429 ;
430 [label="gini = 0.391\nsamples = 0.1%\nvalue = [0.733, 0.267]\nclass = 0"] ;
428 -> 430 ;
431 [label="gini = 0.211\nsamples = 0.1%\nvalue = [0.88, 0.12]\nclass = 0"] ;
425 -> 431 ;
432 [label="age <= 42.5\ngini = 0.482\nsamples = 0.3%\nvalue = [0.596, 0.404]\nclass = 0"] ;
418 -> 432 ;
433 [label="age <= 34.5\ngini = 0.432\nsamples = 0.2%\nvalue = [0.684, 0.316]\nclass = 0"] ;
432 -> 433 ;
434 [label="gini = 0.471\nsamples = 0.1%\nvalue = [0.621, 0.379]\nclass = 0"] ;
433 -> 434 ;
435 [label="gini = 0.375\nsamples = 0.1%\nvalue = [0.75, 0.25]\nclass = 0"] ;
433 -> 435 ;
436 [label="gini = 0.497\nsamples = 0.1%\nvalue = [0.459, 0.541]\nclass = 1"] ;
432 -> 436 ;
437 [label="age <= 32.5\ngini = 0.5\nsamples = 0.3%\nvalue = [0.5, 0.5]\nclass = 0"] ;
401 -> 437 ;
438 [label="gini = 0.298\nsamples = 0.1%\nvalue = [0.818, 0.182]\nclass = 0"] ;
437 -> 438 ;
439 [label="age <= 49.5\ngini = 0.459\nsamples = 0.2%\nvalue = [0.356, 0.644]\nclass = 1"] ;
437 -> 439 ;
440 [label="gini = 0.413\nsamples = 0.1%\nvalue = [0.292, 0.708]\nclass = 1"] ;
439 -> 440 ;
441 [label="gini = 0.499\nsamples = 0.1%\nvalue = [0.48, 0.52]\nclass = 1"] ;
439 -> 441 ;
442 [label="age <= 48.5\ngini = 0.497\nsamples = 0.7%\nvalue = [0.537, 0.463]\nclass = 0"] ;
400 -> 442 ;
443 [label="marital.status_ Never-married <= 0.5\ngini = 0.476\nsamples = 0.5%\nvalue = [0.609, 0.391]\nclass = 0"] ;
442 -> 443 ;
444 [label="education.num <= 13.5\ngini = 0.499\nsamples = 0.3%\nvalue = [0.517, 0.483]\nclass = 0"] ;
443 -> 444 ;
445 [label="age <= 39.5\ngini = 0.488\nsamples = 0.2%\nvalue = [0.576, 0.424]\nclass = 0"] ;
444 -> 445 ;
446 [label="gini = 0.461\nsamples = 0.1%\nvalue = [0.64, 0.36]\nclass = 0"] ;
445 -> 446 ;
447 [label="gini = 0.498\nsamples = 0.1%\nvalue = [0.529, 0.471]\nclass = 0"] ;
445 -> 447 ;
448 [label="gini = 0.477\nsamples = 0.1%\nvalue = [0.393, 0.607]\nclass = 1"] ;
444 -> 448 ;
449 [label="sex_ Male <= 0.5\ngini = 0.423\nsamples = 0.3%\nvalue = [0.696, 0.304]\nclass = 0"] ;
443 -> 449 ;
450 [label="gini = 0.381\nsamples = 0.1%\nvalue = [0.744, 0.256]\nclass = 0"] ;
449 -> 450 ;
451 [label="gini = 0.453\nsamples = 0.2%\nvalue = [0.653, 0.347]\nclass = 0"] ;
449 -> 451 ;
452 [label="education.num <= 13.5\ngini = 0.411\nsamples = 0.2%\nvalue = [0.288, 0.712]\nclass = 1"] ;
442 -> 452 ;
453 [label="gini = 0.473\nsamples = 0.1%\nvalue = [0.385, 0.615]\nclass = 1"] ;
452 -> 453 ;
454 [label="gini = 0.311\nsamples = 0.1%\nvalue = [0.192, 0.808]\nclass = 1"] ;
452 -> 454 ;
455 [label="hours.per.week <= 35.5\ngini = 0.068\nsamples = 1.0%\nvalue = [0.035, 0.965]\nclass = 1"] ;
1 -> 455 ;
456 [label="gini = 0.35\nsamples = 0.1%\nvalue = [0.226, 0.774]\nclass = 1"] ;
455 -> 456 ;
457 [label="education.num <= 10.5\ngini = 0.028\nsamples = 0.9%\nvalue = [0.014, 0.986]\nclass = 1"] ;
455 -> 457 ;
458 [label="marital.status_ Divorced <= 0.5\ngini = 0.094\nsamples = 0.2%\nvalue = [0.049, 0.951]\nclass = 1"] ;
457 -> 458 ;
459 [label="gini = 0.0\nsamples = 0.1%\nvalue = [0.0, 1.0]\nclass = 1"] ;
458 -> 459 ;
460 [label="gini = 0.198\nsamples = 0.1%\nvalue = [0.111, 0.889]\nclass = 1"] ;
458 -> 460 ;
461 [label="gini = 0.0\nsamples = 0.6%\nvalue = [0.0, 1.0]\nclass = 1"] ;
457 -> 461 ;
462 [label="education.num <= 12.5\ngini = 0.494\nsamples = 46.0%\nvalue = [0.553, 0.447]\nclass = 0"] ;
0 -> 462 [labeldistance=2.5, labelangle=-45, headlabel="False"] ;
463 [label="capital.gain <= 5095.5\ngini = 0.443\nsamples = 32.3%\nvalue = [0.669, 0.331]\nclass = 0"] ;
462 -> 463 ;
464 [label="education.num <= 8.5\ngini = 0.417\nsamples = 30.6%\nvalue = [0.703, 0.297]\nclass = 0"] ;
463 -> 464 ;
465 [label="capital.loss <= 1791.5\ngini = 0.181\nsamples = 5.1%\nvalue = [0.899, 0.101]\nclass = 0"] ;
464 -> 465 ;
466 [label="age <= 36.5\ngini = 0.17\nsamples = 5.0%\nvalue = [0.906, 0.094]\nclass = 0"] ;
465 -> 466 ;
467 [label="hours.per.week <= 49.0\ngini = 0.082\nsamples = 1.5%\nvalue = [0.957, 0.043]\nclass = 0"] ;
466 -> 467 ;
468 [label="education.num <= 7.5\ngini = 0.056\nsamples = 1.3%\nvalue = [0.971, 0.029]\nclass = 0"] ;
467 -> 468 ;
469 [label="fnlwgt <= 180527.5\ngini = 0.042\nsamples = 1.1%\nvalue = [0.978, 0.022]\nclass = 0"] ;
468 -> 469 ;
470 [label="fnlwgt <= 144055.5\ngini = 0.081\nsamples = 0.4%\nvalue = [0.958, 0.042]\nclass = 0"] ;
469 -> 470 ;
471 [label="education.num <= 4.5\ngini = 0.039\nsamples = 0.3%\nvalue = [0.98, 0.02]\nclass = 0"] ;
470 -> 471 ;
472 [label="gini = 0.128\nsamples = 0.1%\nvalue = [0.931, 0.069]\nclass = 0"] ;
471 -> 472 ;
473 [label="gini = 0.0\nsamples = 0.2%\nvalue = [1.0, 0.0]\nclass = 0"] ;
471 -> 473 ;
474 [label="gini = 0.172\nsamples = 0.1%\nvalue = [0.905, 0.095]\nclass = 0"] ;
470 -> 474 ;
475 [label="education.num <= 5.5\ngini = 0.017\nsamples = 0.7%\nvalue = [0.991, 0.009]\nclass = 0"] ;
469 -> 475 ;
476 [label="gini = 0.0\nsamples = 0.4%\nvalue = [1.0, 0.0]\nclass = 0"] ;
475 -> 476 ;
477 [label="fnlwgt <= 248984.0\ngini = 0.036\nsamples = 0.3%\nvalue = [0.981, 0.019]\nclass = 0"] ;
475 -> 477 ;
478 [label="gini = 0.0\nsamples = 0.2%\nvalue = [1.0, 0.0]\nclass = 0"] ;
477 -> 478 ;
479 [label="education.num <= 6.5\ngini = 0.073\nsamples = 0.2%\nvalue = [0.962, 0.038]\nclass = 0"] ;
477 -> 479 ;
480 [label="gini = 0.069\nsamples = 0.1%\nvalue = [0.964, 0.036]\nclass = 0"] ;
479 -> 480 ;
481 [label="gini = 0.077\nsamples = 0.1%\nvalue = [0.96, 0.04]\nclass = 0"] ;
479 -> 481 ;
482 [label="gini = 0.176\nsamples = 0.1%\nvalue = [0.902, 0.098]\nclass = 0"] ;
468 -> 482 ;
483 [label="hours.per.week <= 52.5\ngini = 0.2\nsamples = 0.2%\nvalue = [0.888, 0.112]\nclass = 0"] ;
467 -> 483 ;
484 [label="gini = 0.284\nsamples = 0.1%\nvalue = [0.829, 0.171]\nclass = 0"] ;
483 -> 484 ;
485 [label="gini = 0.124\nsamples = 0.1%\nvalue = [0.933, 0.067]\nclass = 0"] ;
483 -> 485 ;
486 [label="education.num <= 5.5\ngini = 0.205\nsamples = 3.5%\nvalue = [0.884, 0.116]\nclass = 0"] ;
466 -> 486 ;
487 [label="hours.per.week <= 49.5\ngini = 0.155\nsamples = 1.9%\nvalue = [0.915, 0.085]\nclass = 0"] ;
486 -> 487 ;
488 [label="fnlwgt <= 53841.5\ngini = 0.112\nsamples = 1.6%\nvalue = [0.941, 0.059]\nclass = 0"] ;
487 -> 488 ;
489 [label="gini = 0.285\nsamples = 0.1%\nvalue = [0.828, 0.172]\nclass = 0"] ;
488 -> 489 ;
490 [label="hours.per.week <= 24.5\ngini = 0.1\nsamples = 1.5%\nvalue = [0.947, 0.053]\nclass = 0"] ;
488 -> 490 ;
491 [label="gini = 0.0\nsamples = 0.2%\nvalue = [1.0, 0.0]\nclass = 0"] ;
490 -> 491 ;
492 [label="workclass_ Self-emp-not-inc <= 0.5\ngini = 0.111\nsamples = 1.4%\nvalue = [0.941, 0.059]\nclass = 0"] ;
490 -> 492 ;
493 [label="relationship_ Wife <= 0.5\ngini = 0.096\nsamples = 1.2%\nvalue = [0.949, 0.051]\nclass = 0"] ;
492 -> 493 ;
494 [label="age <= 52.5\ngini = 0.084\nsamples = 1.1%\nvalue = [0.956, 0.044]\nclass = 0"] ;
493 -> 494 ;
495 [label="occupation_ Machine-op-inspct <= 0.5\ngini = 0.043\nsamples = 0.6%\nvalue = [0.978, 0.022]\nclass = 0"] ;
494 -> 495 ;
496 [label="fnlwgt <= 157306.0\ngini = 0.014\nsamples = 0.4%\nvalue = [0.993, 0.007]\nclass = 0"] ;
495 -> 496 ;
497 [label="gini = 0.056\nsamples = 0.1%\nvalue = [0.971, 0.029]\nclass = 0"] ;
496 -> 497 ;
498 [label="gini = 0.0\nsamples = 0.3%\nvalue = [1.0, 0.0]\nclass = 0"] ;
496 -> 498 ;
499 [label="gini = 0.133\nsamples = 0.1%\nvalue = [0.929, 0.071]\nclass = 0"] ;
495 -> 499 ;
500 [label="age <= 54.5\ngini = 0.123\nsamples = 0.6%\nvalue = [0.934, 0.066]\nclass = 0"] ;
494 -> 500 ;
501 [label="gini = 0.285\nsamples = 0.1%\nvalue = [0.828, 0.172]\nclass = 0"] ;
500 -> 501 ;
502 [label="fnlwgt <= 111287.5\ngini = 0.087\nsamples = 0.5%\nvalue = [0.955, 0.045]\nclass = 0"] ;
500 -> 502 ;
503 [label="gini = 0.0\nsamples = 0.1%\nvalue = [1.0, 0.0]\nclass = 0"] ;
502 -> 503 ;
504 [label="fnlwgt <= 144479.5\ngini = 0.111\nsamples = 0.4%\nvalue = [0.941, 0.059]\nclass = 0"] ;
502 -> 504 ;
505 [label="gini = 0.211\nsamples = 0.1%\nvalue = [0.88, 0.12]\nclass = 0"] ;
504 -> 505 ;
506 [label="workclass_ Private <= 0.5\ngini = 0.081\nsamples = 0.3%\nvalue = [0.957, 0.043]\nclass = 0"] ;
504 -> 506 ;
507 [label="gini = 0.0\nsamples = 0.1%\nvalue = [1.0, 0.0]\nclass = 0"] ;
506 -> 507 ;
508 [label="age <= 59.5\ngini = 0.116\nsamples = 0.2%\nvalue = [0.938, 0.062]\nclass = 0"] ;
506 -> 508 ;
509 [label="gini = 0.059\nsamples = 0.1%\nvalue = [0.97, 0.03]\nclass = 0"] ;
508 -> 509 ;
510 [label="gini = 0.17\nsamples = 0.1%\nvalue = [0.906, 0.094]\nclass = 0"] ;
508 -> 510 ;
511 [label="gini = 0.231\nsamples = 0.1%\nvalue = [0.867, 0.133]\nclass = 0"] ;
493 -> 511 ;
512 [label="gini = 0.223\nsamples = 0.1%\nvalue = [0.872, 0.128]\nclass = 0"] ;
492 -> 512 ;
513 [label="fnlwgt <= 178319.5\ngini = 0.334\nsamples = 0.3%\nvalue = [0.788, 0.212]\nclass = 0"] ;
487 -> 513 ;
514 [label="fnlwgt <= 111547.5\ngini = 0.388\nsamples = 0.2%\nvalue = [0.737, 0.263]\nclass = 0"] ;
513 -> 514 ;
515 [label="gini = 0.252\nsamples = 0.1%\nvalue = [0.852, 0.148]\nclass = 0"] ;
514 -> 515 ;
516 [label="gini = 0.464\nsamples = 0.1%\nvalue = [0.633, 0.367]\nclass = 0"] ;
514 -> 516 ;
517 [label="gini = 0.254\nsamples = 0.1%\nvalue = [0.851, 0.149]\nclass = 0"] ;
513 -> 517 ;
518 [label="age <= 65.5\ngini = 0.262\nsamples = 1.5%\nvalue = [0.845, 0.155]\nclass = 0"] ;
486 -> 518 ;
519 [label="fnlwgt <= 363118.5\ngini = 0.285\nsamples = 1.4%\nvalue = [0.828, 0.172]\nclass = 0"] ;
518 -> 519 ;
520 [label="workclass_ Private <= 0.5\ngini = 0.27\nsamples = 1.3%\nvalue = [0.839, 0.161]\nclass = 0"] ;
519 -> 520 ;
521 [label="hours.per.week <= 38.0\ngini = 0.167\nsamples = 0.4%\nvalue = [0.908, 0.092]\nclass = 0"] ;
520 -> 521 ;
522 [label="gini = 0.0\nsamples = 0.1%\nvalue = [1.0, 0.0]\nclass = 0"] ;
521 -> 522 ;
523 [label="fnlwgt <= 135304.0\ngini = 0.207\nsamples = 0.3%\nvalue = [0.883, 0.117]\nclass = 0"] ;
521 -> 523 ;
524 [label="gini = 0.32\nsamples = 0.1%\nvalue = [0.8, 0.2]\nclass = 0"] ;
523 -> 524 ;
525 [label="age <= 51.5\ngini = 0.144\nsamples = 0.2%\nvalue = [0.922, 0.078]\nclass = 0"] ;
523 -> 525 ;
526 [label="gini = 0.067\nsamples = 0.1%\nvalue = [0.966, 0.034]\nclass = 0"] ;
525 -> 526 ;
527 [label="gini = 0.202\nsamples = 0.1%\nvalue = [0.886, 0.114]\nclass = 0"] ;
525 -> 527 ;
528 [label="fnlwgt <= 198384.0\ngini = 0.306\nsamples = 0.9%\nvalue = [0.812, 0.188]\nclass = 0"] ;
520 -> 528 ;
529 [label="fnlwgt <= 183928.5\ngini = 0.34\nsamples = 0.7%\nvalue = [0.783, 0.217]\nclass = 0"] ;
528 -> 529 ;
530 [label="age <= 43.5\ngini = 0.319\nsamples = 0.6%\nvalue = [0.801, 0.199]\nclass = 0"] ;
529 -> 530 ;
531 [label="gini = 0.206\nsamples = 0.1%\nvalue = [0.884, 0.116]\nclass = 0"] ;
530 -> 531 ;
532 [label="education.num <= 6.5\ngini = 0.348\nsamples = 0.4%\nvalue = [0.775, 0.225]\nclass = 0"] ;
530 -> 532 ;
533 [label="age <= 56.5\ngini = 0.394\nsamples = 0.2%\nvalue = [0.73, 0.27]\nclass = 0"] ;
532 -> 533 ;
534 [label="gini = 0.361\nsamples = 0.1%\nvalue = [0.763, 0.237]\nclass = 0"] ;
533 -> 534 ;
535 [label="gini = 0.435\nsamples = 0.1%\nvalue = [0.68, 0.32]\nclass = 0"] ;
533 -> 535 ;
536 [label="age <= 51.5\ngini = 0.304\nsamples = 0.2%\nvalue = [0.813, 0.187]\nclass = 0"] ;
532 -> 536 ;
537 [label="gini = 0.383\nsamples = 0.1%\nvalue = [0.742, 0.258]\nclass = 0"] ;
536 -> 537 ;
538 [label="gini = 0.236\nsamples = 0.1%\nvalue = [0.864, 0.136]\nclass = 0"] ;
536 -> 538 ;
539 [label="gini = 0.437\nsamples = 0.1%\nvalue = [0.677, 0.323]\nclass = 0"] ;
529 -> 539 ;
540 [label="age <= 44.5\ngini = 0.219\nsamples = 0.3%\nvalue = [0.875, 0.125]\nclass = 0"] ;
528 -> 540 ;
541 [label="gini = 0.291\nsamples = 0.1%\nvalue = [0.824, 0.176]\nclass = 0"] ;
540 -> 541 ;
542 [label="fnlwgt <= 245912.0\ngini = 0.175\nsamples = 0.2%\nvalue = [0.903, 0.097]\nclass = 0"] ;
540 -> 542 ;
543 [label="gini = 0.251\nsamples = 0.1%\nvalue = [0.853, 0.147]\nclass = 0"] ;
542 -> 543 ;
544 [label="gini = 0.069\nsamples = 0.1%\nvalue = [0.964, 0.036]\nclass = 0"] ;
542 -> 544 ;
545 [label="gini = 0.461\nsamples = 0.1%\nvalue = [0.64, 0.36]\nclass = 0"] ;
519 -> 545 ;
546 [label="gini = 0.0\nsamples = 0.2%\nvalue = [1.0, 0.0]\nclass = 0"] ;
518 -> 546 ;
547 [label="gini = 0.49\nsamples = 0.1%\nvalue = [0.571, 0.429]\nclass = 0"] ;
465 -> 547 ;
548 [label="capital.loss <= 1782.5\ngini = 0.446\nsamples = 25.6%\nvalue = [0.664, 0.336]\nclass = 0"] ;
464 -> 548 ;
549 [label="age <= 35.5\ngini = 0.434\nsamples = 24.5%\nvalue = [0.682, 0.318]\nclass = 0"] ;
548 -> 549 ;
550 [label="age <= 29.5\ngini = 0.325\nsamples = 8.3%\nvalue = [0.796, 0.204]\nclass = 0"] ;
549 -> 550 ;
551 [label="age <= 24.5\ngini = 0.239\nsamples = 3.7%\nvalue = [0.861, 0.139]\nclass = 0"] ;
550 -> 551 ;
552 [label="hours.per.week <= 45.5\ngini = 0.108\nsamples = 1.0%\nvalue = [0.943, 0.057]\nclass = 0"] ;
551 -> 552 ;
553 [label="fnlwgt <= 232486.0\ngini = 0.057\nsamples = 0.8%\nvalue = [0.971, 0.029]\nclass = 0"] ;
552 -> 553 ;
554 [label="fnlwgt <= 118557.5\ngini = 0.031\nsamples = 0.6%\nvalue = [0.984, 0.016]\nclass = 0"] ;
553 -> 554 ;
555 [label="education.num <= 9.5\ngini = 0.091\nsamples = 0.2%\nvalue = [0.952, 0.048]\nclass = 0"] ;
554 -> 555 ;
556 [label="gini = 0.185\nsamples = 0.1%\nvalue = [0.897, 0.103]\nclass = 0"] ;
555 -> 556 ;
557 [label="gini = 0.0\nsamples = 0.1%\nvalue = [1.0, 0.0]\nclass = 0"] ;
555 -> 557 ;
558 [label="gini = 0.0\nsamples = 0.4%\nvalue = [1.0, 0.0]\nclass = 0"] ;
554 -> 558 ;
559 [label="fnlwgt <= 278180.5\ngini = 0.11\nsamples = 0.3%\nvalue = [0.942, 0.058]\nclass = 0"] ;
553 -> 559 ;
560 [label="gini = 0.211\nsamples = 0.1%\nvalue = [0.88, 0.12]\nclass = 0"] ;
559 -> 560 ;
561 [label="fnlwgt <= 379329.0\ngini = 0.063\nsamples = 0.2%\nvalue = [0.967, 0.033]\nclass = 0"] ;
559 -> 561 ;
562 [label="gini = 0.0\nsamples = 0.1%\nvalue = [1.0, 0.0]\nclass = 0"] ;
561 -> 562 ;
563 [label="gini = 0.147\nsamples = 0.1%\nvalue = [0.92, 0.08]\nclass = 0"] ;
561 -> 563 ;
564 [label="fnlwgt <= 216269.5\ngini = 0.303\nsamples = 0.2%\nvalue = [0.814, 0.186]\nclass = 0"] ;
552 -> 564 ;
565 [label="gini = 0.35\nsamples = 0.1%\nvalue = [0.774, 0.226]\nclass = 0"] ;
564 -> 565 ;
566 [label="gini = 0.245\nsamples = 0.1%\nvalue = [0.857, 0.143]\nclass = 0"] ;
564 -> 566 ;
567 [label="education.num <= 9.5\ngini = 0.282\nsamples = 2.7%\nvalue = [0.83, 0.17]\nclass = 0"] ;
551 -> 567 ;
568 [label="fnlwgt <= 278932.5\ngini = 0.22\nsamples = 1.5%\nvalue = [0.874, 0.126]\nclass = 0"] ;
567 -> 568 ;
569 [label="fnlwgt <= 239753.0\ngini = 0.241\nsamples = 1.3%\nvalue = [0.86, 0.14]\nclass = 0"] ;
568 -> 569 ;
570 [label="sex_ Male <= 0.5\ngini = 0.219\nsamples = 1.1%\nvalue = [0.875, 0.125]\nclass = 0"] ;
569 -> 570 ;
571 [label="gini = 0.369\nsamples = 0.1%\nvalue = [0.756, 0.244]\nclass = 0"] ;
570 -> 571 ;
572 [label="hours.per.week <= 57.5\ngini = 0.193\nsamples = 1.0%\nvalue = [0.892, 0.108]\nclass = 0"] ;
570 -> 572 ;
573 [label="fnlwgt <= 64728.5\ngini = 0.177\nsamples = 0.9%\nvalue = [0.902, 0.098]\nclass = 0"] ;
572 -> 573 ;
574 [label="gini = 0.056\nsamples = 0.1%\nvalue = [0.971, 0.029]\nclass = 0"] ;
573 -> 574 ;
575 [label="fnlwgt <= 161126.0\ngini = 0.192\nsamples = 0.8%\nvalue = [0.892, 0.108]\nclass = 0"] ;
573 -> 575 ;
576 [label="fnlwgt <= 131523.5\ngini = 0.245\nsamples = 0.3%\nvalue = [0.857, 0.143]\nclass = 0"] ;
575 -> 576 ;
577 [label="fnlwgt <= 105558.0\ngini = 0.178\nsamples = 0.2%\nvalue = [0.901, 0.099]\nclass = 0"] ;
576 -> 577 ;
578 [label="gini = 0.298\nsamples = 0.1%\nvalue = [0.818, 0.182]\nclass = 0"] ;
577 -> 578 ;
579 [label="gini = 0.051\nsamples = 0.1%\nvalue = [0.974, 0.026]\nclass = 0"] ;
577 -> 579 ;
580 [label="gini = 0.343\nsamples = 0.1%\nvalue = [0.78, 0.22]\nclass = 0"] ;
576 -> 580 ;
581 [label="fnlwgt <= 176027.0\ngini = 0.149\nsamples = 0.5%\nvalue = [0.919, 0.081]\nclass = 0"] ;
575 -> 581 ;
582 [label="gini = 0.0\nsamples = 0.1%\nvalue = [1.0, 0.0]\nclass = 0"] ;
581 -> 582 ;
583 [label="fnlwgt <= 211317.0\ngini = 0.177\nsamples = 0.4%\nvalue = [0.902, 0.098]\nclass = 0"] ;
581 -> 583 ;
584 [label="fnlwgt <= 200596.0\ngini = 0.219\nsamples = 0.3%\nvalue = [0.875, 0.125]\nclass = 0"] ;
583 -> 584 ;
585 [label="fnlwgt <= 186008.5\ngini = 0.146\nsamples = 0.2%\nvalue = [0.921, 0.079]\nclass = 0"] ;
584 -> 585 ;
586 [label="gini = 0.18\nsamples = 0.1%\nvalue = [0.9, 0.1]\nclass = 0"] ;
585 -> 586 ;
587 [label="gini = 0.114\nsamples = 0.1%\nvalue = [0.939, 0.061]\nclass = 0"] ;
585 -> 587 ;
588 [label="gini = 0.365\nsamples = 0.1%\nvalue = [0.76, 0.24]\nclass = 0"] ;
584 -> 588 ;
589 [label="gini = 0.057\nsamples = 0.1%\nvalue = [0.971, 0.029]\nclass = 0"] ;
583 -> 589 ;
590 [label="gini = 0.337\nsamples = 0.1%\nvalue = [0.786, 0.214]\nclass = 0"] ;
572 -> 590 ;
591 [label="gini = 0.391\nsamples = 0.1%\nvalue = [0.733, 0.267]\nclass = 0"] ;
569 -> 591 ;
592 [label="fnlwgt <= 336677.5\ngini = 0.079\nsamples = 0.2%\nvalue = [0.959, 0.041]\nclass = 0"] ;
568 -> 592 ;
593 [label="gini = 0.0\nsamples = 0.1%\nvalue = [1.0, 0.0]\nclass = 0"] ;
592 -> 593 ;
594 [label="gini = 0.136\nsamples = 0.1%\nvalue = [0.927, 0.073]\nclass = 0"] ;
592 -> 594 ;
595 [label="fnlwgt <= 291086.0\ngini = 0.349\nsamples = 1.2%\nvalue = [0.775, 0.225]\nclass = 0"] ;
567 -> 595 ;
596 [label="occupation_ Adm-clerical <= 0.5\ngini = 0.316\nsamples = 1.0%\nvalue = [0.803, 0.197]\nclass = 0"] ;
595 -> 596 ;
597 [label="fnlwgt <= 146553.5\ngini = 0.297\nsamples = 0.8%\nvalue = [0.819, 0.181]\nclass = 0"] ;
596 -> 597 ;
598 [label="education.num <= 10.5\ngini = 0.23\nsamples = 0.3%\nvalue = [0.867, 0.133]\nclass = 0"] ;
597 -> 598 ;
599 [label="fnlwgt <= 104584.5\ngini = 0.174\nsamples = 0.3%\nvalue = [0.904, 0.096]\nclass = 0"] ;
598 -> 599 ;
600 [label="gini = 0.278\nsamples = 0.1%\nvalue = [0.833, 0.167]\nclass = 0"] ;
599 -> 600 ;
601 [label="gini = 0.048\nsamples = 0.1%\nvalue = [0.976, 0.024]\nclass = 0"] ;
599 -> 601 ;
602 [label="gini = 0.358\nsamples = 0.1%\nvalue = [0.767, 0.233]\nclass = 0"] ;
598 -> 602 ;
603 [label="occupation_ Craft-repair <= 0.5\ngini = 0.339\nsamples = 0.5%\nvalue = [0.783, 0.217]\nclass = 0"] ;
597 -> 603 ;
604 [label="fnlwgt <= 234916.0\ngini = 0.303\nsamples = 0.4%\nvalue = [0.814, 0.186]\nclass = 0"] ;
603 -> 604 ;
605 [label="age <= 27.5\ngini = 0.349\nsamples = 0.3%\nvalue = [0.775, 0.225]\nclass = 0"] ;
604 -> 605 ;
606 [label="age <= 26.5\ngini = 0.402\nsamples = 0.2%\nvalue = [0.721, 0.279]\nclass = 0"] ;
605 -> 606 ;
607 [label="gini = 0.313\nsamples = 0.1%\nvalue = [0.806, 0.194]\nclass = 0"] ;
606 -> 607 ;
608 [label="gini = 0.48\nsamples = 0.1%\nvalue = [0.6, 0.4]\nclass = 0"] ;
606 -> 608 ;
609 [label="gini = 0.25\nsamples = 0.1%\nvalue = [0.854, 0.146]\nclass = 0"] ;
605 -> 609 ;
610 [label="gini = 0.071\nsamples = 0.1%\nvalue = [0.963, 0.037]\nclass = 0"] ;
604 -> 610 ;
611 [label="gini = 0.459\nsamples = 0.1%\nvalue = [0.643, 0.357]\nclass = 0"] ;
603 -> 611 ;
612 [label="gini = 0.411\nsamples = 0.1%\nvalue = [0.711, 0.289]\nclass = 0"] ;
596 -> 612 ;
613 [label="age <= 27.5\ngini = 0.456\nsamples = 0.2%\nvalue = [0.648, 0.352]\nclass = 0"] ;
595 -> 613 ;
614 [label="gini = 0.389\nsamples = 0.1%\nvalue = [0.735, 0.265]\nclass = 0"] ;
613 -> 614 ;
615 [label="gini = 0.491\nsamples = 0.1%\nvalue = [0.568, 0.432]\nclass = 0"] ;
613 -> 615 ;
616 [label="education.num <= 9.5\ngini = 0.382\nsamples = 4.6%\nvalue = [0.743, 0.257]\nclass = 0"] ;
550 -> 616 ;
617 [label="hours.per.week <= 52.5\ngini = 0.327\nsamples = 2.5%\nvalue = [0.794, 0.206]\nclass = 0"] ;
616 -> 617 ;
618 [label="race_ White <= 0.5\ngini = 0.298\nsamples = 2.2%\nvalue = [0.818, 0.182]\nclass = 0"] ;
617 -> 618 ;
619 [label="fnlwgt <= 164603.0\ngini = 0.108\nsamples = 0.3%\nvalue = [0.943, 0.057]\nclass = 0"] ;
618 -> 619 ;
620 [label="gini = 0.245\nsamples = 0.1%\nvalue = [0.857, 0.143]\nclass = 0"] ;
619 -> 620 ;
621 [label="fnlwgt <= 283143.0\ngini = 0.033\nsamples = 0.2%\nvalue = [0.983, 0.017]\nclass = 0"] ;
619 -> 621 ;
622 [label="gini = 0.0\nsamples = 0.1%\nvalue = [1.0, 0.0]\nclass = 0"] ;
621 -> 622 ;
623 [label="gini = 0.077\nsamples = 0.1%\nvalue = [0.96, 0.04]\nclass = 0"] ;
621 -> 623 ;
624 [label="relationship_ Wife <= 0.5\ngini = 0.319\nsamples = 1.9%\nvalue = [0.801, 0.199]\nclass = 0"] ;
618 -> 624 ;
625 [label="fnlwgt <= 88409.0\ngini = 0.298\nsamples = 1.7%\nvalue = [0.818, 0.182]\nclass = 0"] ;
624 -> 625 ;
626 [label="occupation_ Craft-repair <= 0.5\ngini = 0.136\nsamples = 0.3%\nvalue = [0.927, 0.073]\nclass = 0"] ;
625 -> 626 ;
627 [label="fnlwgt <= 53801.0\ngini = 0.204\nsamples = 0.2%\nvalue = [0.885, 0.115]\nclass = 0"] ;
626 -> 627 ;
628 [label="gini = 0.211\nsamples = 0.1%\nvalue = [0.88, 0.12]\nclass = 0"] ;
627 -> 628 ;
629 [label="gini = 0.198\nsamples = 0.1%\nvalue = [0.889, 0.111]\nclass = 0"] ;
627 -> 629 ;
630 [label="gini = 0.0\nsamples = 0.1%\nvalue = [1.0, 0.0]\nclass = 0"] ;
626 -> 630 ;
631 [label="hours.per.week <= 39.0\ngini = 0.321\nsamples = 1.5%\nvalue = [0.799, 0.201]\nclass = 0"] ;
625 -> 631 ;
632 [label="gini = 0.121\nsamples = 0.1%\nvalue = [0.935, 0.065]\nclass = 0"] ;
631 -> 632 ;
633 [label="workclass_ Private <= 0.5\ngini = 0.332\nsamples = 1.4%\nvalue = [0.79, 0.21]\nclass = 0"] ;
631 -> 633 ;
634 [label="hours.per.week <= 42.0\ngini = 0.406\nsamples = 0.3%\nvalue = [0.717, 0.283]\nclass = 0"] ;
633 -> 634 ;
635 [label="fnlwgt <= 203390.5\ngini = 0.444\nsamples = 0.2%\nvalue = [0.667, 0.333]\nclass = 0"] ;
634 -> 635 ;
636 [label="gini = 0.4\nsamples = 0.1%\nvalue = [0.723, 0.277]\nclass = 0"] ;
635 -> 636 ;
637 [label="gini = 0.487\nsamples = 0.1%\nvalue = [0.581, 0.419]\nclass = 0"] ;
635 -> 637 ;
638 [label="gini = 0.245\nsamples = 0.1%\nvalue = [0.857, 0.143]\nclass = 0"] ;
634 -> 638 ;
639 [label="age <= 30.5\ngini = 0.305\nsamples = 1.0%\nvalue = [0.812, 0.188]\nclass = 0"] ;
633 -> 639 ;
640 [label="fnlwgt <= 191904.5\ngini = 0.219\nsamples = 0.2%\nvalue = [0.875, 0.125]\nclass = 0"] ;
639 -> 640 ;
641 [label="gini = 0.285\nsamples = 0.1%\nvalue = [0.828, 0.172]\nclass = 0"] ;
640 -> 641 ;
642 [label="gini = 0.137\nsamples = 0.1%\nvalue = [0.926, 0.074]\nclass = 0"] ;
640 -> 642 ;
643 [label="age <= 31.5\ngini = 0.32\nsamples = 0.9%\nvalue = [0.8, 0.2]\nclass = 0"] ;
639 -> 643 ;
644 [label="fnlwgt <= 202589.5\ngini = 0.406\nsamples = 0.2%\nvalue = [0.717, 0.283]\nclass = 0"] ;
643 -> 644 ;
645 [label="gini = 0.384\nsamples = 0.1%\nvalue = [0.741, 0.259]\nclass = 0"] ;
644 -> 645 ;
646 [label="gini = 0.426\nsamples = 0.1%\nvalue = [0.692, 0.308]\nclass = 0"] ;
644 -> 646 ;
647 [label="hours.per.week <= 49.5\ngini = 0.296\nsamples = 0.7%\nvalue = [0.819, 0.181]\nclass = 0"] ;
643 -> 647 ;
648 [label="age <= 34.5\ngini = 0.278\nsamples = 0.6%\nvalue = [0.833, 0.167]\nclass = 0"] ;
647 -> 648 ;
649 [label="age <= 32.5\ngini = 0.299\nsamples = 0.5%\nvalue = [0.817, 0.183]\nclass = 0"] ;
648 -> 649 ;
650 [label="fnlwgt <= 194950.5\ngini = 0.211\nsamples = 0.2%\nvalue = [0.88, 0.12]\nclass = 0"] ;
649 -> 650 ;
651 [label="gini = 0.147\nsamples = 0.1%\nvalue = [0.92, 0.08]\nclass = 0"] ;
650 -> 651 ;
652 [label="gini = 0.269\nsamples = 0.1%\nvalue = [0.84, 0.16]\nclass = 0"] ;
650 -> 652 ;
653 [label="fnlwgt <= 234668.0\ngini = 0.336\nsamples = 0.3%\nvalue = [0.786, 0.214]\nclass = 0"] ;
649 -> 653 ;
654 [label="gini = 0.364\nsamples = 0.2%\nvalue = [0.761, 0.239]\nclass = 0"] ;
653 -> 654 ;
655 [label="gini = 0.264\nsamples = 0.1%\nvalue = [0.844, 0.156]\nclass = 0"] ;
653 -> 655 ;
656 [label="gini = 0.198\nsamples = 0.1%\nvalue = [0.889, 0.111]\nclass = 0"] ;
648 -> 656 ;
657 [label="gini = 0.4\nsamples = 0.1%\nvalue = [0.724, 0.276]\nclass = 0"] ;
647 -> 657 ;
658 [label="hours.per.week <= 39.0\ngini = 0.458\nsamples = 0.2%\nvalue = [0.645, 0.355]\nclass = 0"] ;
624 -> 658 ;
659 [label="gini = 0.302\nsamples = 0.1%\nvalue = [0.815, 0.185]\nclass = 0"] ;
658 -> 659 ;
660 [label="gini = 0.5\nsamples = 0.1%\nvalue = [0.514, 0.486]\nclass = 0"] ;
658 -> 660 ;
661 [label="workclass_ Self-emp-not-inc <= 0.5\ngini = 0.455\nsamples = 0.4%\nvalue = [0.65, 0.35]\nclass = 0"] ;
617 -> 661 ;
662 [label="fnlwgt <= 219811.0\ngini = 0.483\nsamples = 0.3%\nvalue = [0.591, 0.409]\nclass = 0"] ;
661 -> 662 ;
663 [label="fnlwgt <= 129815.0\ngini = 0.5\nsamples = 0.2%\nvalue = [0.508, 0.492]\nclass = 0"] ;
662 -> 663 ;
664 [label="gini = 0.493\nsamples = 0.1%\nvalue = [0.56, 0.44]\nclass = 0"] ;
663 -> 664 ;
665 [label="gini = 0.499\nsamples = 0.1%\nvalue = [0.474, 0.526]\nclass = 1"] ;
663 -> 665 ;
666 [label="gini = 0.32\nsamples = 0.1%\nvalue = [0.8, 0.2]\nclass = 0"] ;
662 -> 666 ;
667 [label="gini = 0.285\nsamples = 0.1%\nvalue = [0.828, 0.172]\nclass = 0"] ;
661 -> 667 ;
668 [label="fnlwgt <= 157762.5\ngini = 0.434\nsamples = 2.1%\nvalue = [0.681, 0.319]\nclass = 0"] ;
616 -> 668 ;
669 [label="occupation_ Craft-repair <= 0.5\ngini = 0.364\nsamples = 0.9%\nvalue = [0.761, 0.239]\nclass = 0"] ;
668 -> 669 ;
670 [label="fnlwgt <= 127726.5\ngini = 0.398\nsamples = 0.7%\nvalue = [0.726, 0.274]\nclass = 0"] ;
669 -> 670 ;
671 [label="fnlwgt <= 113453.5\ngini = 0.425\nsamples = 0.5%\nvalue = [0.694, 0.306]\nclass = 0"] ;
670 -> 671 ;
672 [label="fnlwgt <= 34855.0\ngini = 0.375\nsamples = 0.4%\nvalue = [0.75, 0.25]\nclass = 0"] ;
671 -> 672 ;
673 [label="gini = 0.493\nsamples = 0.1%\nvalue = [0.56, 0.44]\nclass = 0"] ;
672 -> 673 ;
674 [label="fnlwgt <= 83939.0\ngini = 0.327\nsamples = 0.3%\nvalue = [0.794, 0.206]\nclass = 0"] ;
672 -> 674 ;
675 [label="fnlwgt <= 54892.0\ngini = 0.209\nsamples = 0.2%\nvalue = [0.881, 0.119]\nclass = 0"] ;
674 -> 675 ;
676 [label="gini = 0.133\nsamples = 0.1%\nvalue = [0.929, 0.071]\nclass = 0"] ;
675 -> 676 ;
677 [label="gini = 0.271\nsamples = 0.1%\nvalue = [0.839, 0.161]\nclass = 0"] ;
675 -> 677 ;
678 [label="gini = 0.43\nsamples = 0.1%\nvalue = [0.688, 0.312]\nclass = 0"] ;
674 -> 678 ;
679 [label="gini = 0.5\nsamples = 0.1%\nvalue = [0.512, 0.488]\nclass = 0"] ;
671 -> 679 ;
680 [label="gini = 0.245\nsamples = 0.1%\nvalue = [0.857, 0.143]\nclass = 0"] ;
670 -> 680 ;
681 [label="hours.per.week <= 43.5\ngini = 0.216\nsamples = 0.2%\nvalue = [0.877, 0.123]\nclass = 0"] ;
669 -> 681 ;
682 [label="gini = 0.153\nsamples = 0.1%\nvalue = [0.917, 0.083]\nclass = 0"] ;
681 -> 682 ;
683 [label="gini = 0.285\nsamples = 0.1%\nvalue = [0.828, 0.172]\nclass = 0"] ;
681 -> 683 ;
684 [label="occupation_ Exec-managerial <= 0.5\ngini = 0.468\nsamples = 1.2%\nvalue = [0.626, 0.374]\nclass = 0"] ;
668 -> 684 ;
685 [label="occupation_ Prof-specialty <= 0.5\ngini = 0.451\nsamples = 1.0%\nvalue = [0.657, 0.343]\nclass = 0"] ;
684 -> 685 ;
686 [label="native.country_ United-States <= 0.5\ngini = 0.433\nsamples = 0.9%\nvalue = [0.683, 0.317]\nclass = 0"] ;
685 -> 686 ;
687 [label="gini = 0.289\nsamples = 0.1%\nvalue = [0.825, 0.175]\nclass = 0"] ;
686 -> 687 ;
688 [label="hours.per.week <= 54.0\ngini = 0.448\nsamples = 0.8%\nvalue = [0.662, 0.338]\nclass = 0"] ;
686 -> 688 ;
689 [label="fnlwgt <= 226536.0\ngini = 0.429\nsamples = 0.7%\nvalue = [0.688, 0.312]\nclass = 0"] ;
688 -> 689 ;
690 [label="fnlwgt <= 179246.0\ngini = 0.473\nsamples = 0.3%\nvalue = [0.617, 0.383]\nclass = 0"] ;
689 -> 690 ;
691 [label="gini = 0.382\nsamples = 0.1%\nvalue = [0.743, 0.257]\nclass = 0"] ;
690 -> 691 ;
692 [label="age <= 33.5\ngini = 0.494\nsamples = 0.2%\nvalue = [0.556, 0.444]\nclass = 0"] ;
690 -> 692 ;
693 [label="gini = 0.48\nsamples = 0.1%\nvalue = [0.6, 0.4]\nclass = 0"] ;
692 -> 693 ;
694 [label="gini = 0.5\nsamples = 0.1%\nvalue = [0.514, 0.486]\nclass = 0"] ;
692 -> 694 ;
695 [label="fnlwgt <= 350508.5\ngini = 0.377\nsamples = 0.4%\nvalue = [0.748, 0.252]\nclass = 0"] ;
689 -> 695 ;
696 [label="age <= 33.5\ngini = 0.317\nsamples = 0.3%\nvalue = [0.802, 0.198]\nclass = 0"] ;
695 -> 696 ;
697 [label="age <= 31.5\ngini = 0.278\nsamples = 0.2%\nvalue = [0.833, 0.167]\nclass = 0"] ;
696 -> 697 ;
698 [label="gini = 0.327\nsamples = 0.1%\nvalue = [0.794, 0.206]\nclass = 0"] ;
697 -> 698 ;
699 [label="gini = 0.219\nsamples = 0.1%\nvalue = [0.875, 0.125]\nclass = 0"] ;
697 -> 699 ;
700 [label="gini = 0.391\nsamples = 0.1%\nvalue = [0.733, 0.267]\nclass = 0"] ;
696 -> 700 ;
701 [label="gini = 0.487\nsamples = 0.1%\nvalue = [0.581, 0.419]\nclass = 0"] ;
695 -> 701 ;
702 [label="gini = 0.5\nsamples = 0.1%\nvalue = [0.486, 0.514]\nclass = 1"] ;
688 -> 702 ;
703 [label="gini = 0.482\nsamples = 0.1%\nvalue = [0.406, 0.594]\nclass = 1"] ;
685 -> 703 ;
704 [label="fnlwgt <= 211043.0\ngini = 0.492\nsamples = 0.2%\nvalue = [0.439, 0.561]\nclass = 1"] ;
684 -> 704 ;
705 [label="gini = 0.5\nsamples = 0.1%\nvalue = [0.5, 0.5]\nclass = 0"] ;
704 -> 705 ;
706 [label="gini = 0.475\nsamples = 0.1%\nvalue = [0.387, 0.613]\nclass = 1"] ;
704 -> 706 ;
707 [label="hours.per.week <= 34.5\ngini = 0.47\nsamples = 16.2%\nvalue = [0.623, 0.377]\nclass = 0"] ;
549 -> 707 ;
708 [label="relationship_ Wife <= 0.5\ngini = 0.265\nsamples = 1.8%\nvalue = [0.843, 0.157]\nclass = 0"] ;
707 -> 708 ;
709 [label="education.num <= 9.5\ngini = 0.186\nsamples = 1.3%\nvalue = [0.896, 0.104]\nclass = 0"] ;
708 -> 709 ;
710 [label="age <= 61.5\ngini = 0.106\nsamples = 0.8%\nvalue = [0.944, 0.056]\nclass = 0"] ;
709 -> 710 ;
711 [label="hours.per.week <= 19.0\ngini = 0.16\nsamples = 0.4%\nvalue = [0.912, 0.088]\nclass = 0"] ;
710 -> 711 ;
712 [label="gini = 0.0\nsamples = 0.1%\nvalue = [1.0, 0.0]\nclass = 0"] ;
711 -> 712 ;
713 [label="workclass_ Self-emp-not-inc <= 0.5\ngini = 0.206\nsamples = 0.3%\nvalue = [0.883, 0.117]\nclass = 0"] ;
711 -> 713 ;
714 [label="age <= 52.0\ngini = 0.265\nsamples = 0.2%\nvalue = [0.843, 0.157]\nclass = 0"] ;
713 -> 714 ;
715 [label="gini = 0.176\nsamples = 0.1%\nvalue = [0.902, 0.098]\nclass = 0"] ;
714 -> 715 ;
716 [label="gini = 0.366\nsamples = 0.1%\nvalue = [0.759, 0.241]\nclass = 0"] ;
714 -> 716 ;
717 [label="gini = 0.059\nsamples = 0.1%\nvalue = [0.97, 0.03]\nclass = 0"] ;
713 -> 717 ;
718 [label="fnlwgt <= 104269.5\ngini = 0.045\nsamples = 0.4%\nvalue = [0.977, 0.023]\nclass = 0"] ;
710 -> 718 ;
719 [label="gini = 0.137\nsamples = 0.1%\nvalue = [0.926, 0.074]\nclass = 0"] ;
718 -> 719 ;
720 [label="hours.per.week <= 24.5\ngini = 0.019\nsamples = 0.3%\nvalue = [0.99, 0.01]\nclass = 0"] ;
718 -> 720 ;
721 [label="gini = 0.0\nsamples = 0.2%\nvalue = [1.0, 0.0]\nclass = 0"] ;
720 -> 721 ;
722 [label="gini = 0.077\nsamples = 0.1%\nvalue = [0.96, 0.04]\nclass = 0"] ;
720 -> 722 ;
723 [label="age <= 69.5\ngini = 0.293\nsamples = 0.5%\nvalue = [0.821, 0.179]\nclass = 0"] ;
709 -> 723 ;
724 [label="age <= 61.5\ngini = 0.252\nsamples = 0.4%\nvalue = [0.852, 0.148]\nclass = 0"] ;
723 -> 724 ;
725 [label="age <= 54.5\ngini = 0.304\nsamples = 0.3%\nvalue = [0.813, 0.187]\nclass = 0"] ;
724 -> 725 ;
726 [label="fnlwgt <= 200101.5\ngini = 0.216\nsamples = 0.2%\nvalue = [0.877, 0.123]\nclass = 0"] ;
725 -> 726 ;
727 [label="gini = 0.145\nsamples = 0.1%\nvalue = [0.921, 0.079]\nclass = 0"] ;
726 -> 727 ;
728 [label="gini = 0.302\nsamples = 0.1%\nvalue = [0.815, 0.185]\nclass = 0"] ;
726 -> 728 ;
729 [label="gini = 0.453\nsamples = 0.1%\nvalue = [0.654, 0.346]\nclass = 0"] ;
725 -> 729 ;
730 [label="gini = 0.127\nsamples = 0.1%\nvalue = [0.932, 0.068]\nclass = 0"] ;
724 -> 730 ;
731 [label="gini = 0.422\nsamples = 0.1%\nvalue = [0.697, 0.303]\nclass = 0"] ;
723 -> 731 ;
732 [label="age <= 60.5\ngini = 0.435\nsamples = 0.4%\nvalue = [0.681, 0.319]\nclass = 0"] ;
708 -> 732 ;
733 [label="fnlwgt <= 147953.5\ngini = 0.463\nsamples = 0.4%\nvalue = [0.636, 0.364]\nclass = 0"] ;
732 -> 733 ;
734 [label="gini = 0.391\nsamples = 0.1%\nvalue = [0.733, 0.267]\nclass = 0"] ;
733 -> 734 ;
735 [label="fnlwgt <= 195180.5\ngini = 0.489\nsamples = 0.2%\nvalue = [0.575, 0.425]\nclass = 0"] ;
733 -> 735 ;
736 [label="gini = 0.471\nsamples = 0.1%\nvalue = [0.379, 0.621]\nclass = 1"] ;
735 -> 736 ;
737 [label="gini = 0.416\nsamples = 0.1%\nvalue = [0.705, 0.295]\nclass = 0"] ;
735 -> 737 ;
738 [label="gini = 0.204\nsamples = 0.1%\nvalue = [0.885, 0.115]\nclass = 0"] ;
732 -> 738 ;
739 [label="education.num <= 9.5\ngini = 0.481\nsamples = 14.5%\nvalue = [0.596, 0.404]\nclass = 0"] ;
707 -> 739 ;
740 [label="occupation_ Exec-managerial <= 0.5\ngini = 0.453\nsamples = 8.1%\nvalue = [0.654, 0.346]\nclass = 0"] ;
739 -> 740 ;
741 [label="occupation_ Other-service <= 0.5\ngini = 0.442\nsamples = 7.2%\nvalue = [0.67, 0.33]\nclass = 0"] ;
740 -> 741 ;
742 [label="occupation_ Farming-fishing <= 0.5\ngini = 0.45\nsamples = 6.8%\nvalue = [0.659, 0.341]\nclass = 0"] ;
741 -> 742 ;
743 [label="hours.per.week <= 41.5\ngini = 0.457\nsamples = 6.4%\nvalue = [0.647, 0.353]\nclass = 0"] ;
742 -> 743 ;
744 [label="occupation_ Adm-clerical <= 0.5\ngini = 0.438\nsamples = 4.2%\nvalue = [0.676, 0.324]\nclass = 0"] ;
743 -> 744 ;
745 [label="age <= 46.5\ngini = 0.425\nsamples = 3.7%\nvalue = [0.693, 0.307]\nclass = 0"] ;
744 -> 745 ;
746 [label="fnlwgt <= 182386.0\ngini = 0.386\nsamples = 1.7%\nvalue = [0.738, 0.262]\nclass = 0"] ;
745 -> 746 ;
747 [label="fnlwgt <= 175437.5\ngini = 0.33\nsamples = 0.8%\nvalue = [0.792, 0.208]\nclass = 0"] ;
746 -> 747 ;
748 [label="age <= 38.5\ngini = 0.359\nsamples = 0.7%\nvalue = [0.766, 0.234]\nclass = 0"] ;
747 -> 748 ;
749 [label="fnlwgt <= 106320.5\ngini = 0.216\nsamples = 0.2%\nvalue = [0.877, 0.123]\nclass = 0"] ;
748 -> 749 ;
750 [label="gini = 0.403\nsamples = 0.1%\nvalue = [0.72, 0.28]\nclass = 0"] ;
749 -> 750 ;
751 [label="gini = 0.049\nsamples = 0.1%\nvalue = [0.975, 0.025]\nclass = 0"] ;
749 -> 751 ;
752 [label="fnlwgt <= 81026.5\ngini = 0.4\nsamples = 0.5%\nvalue = [0.724, 0.276]\nclass = 0"] ;
748 -> 752 ;
753 [label="gini = 0.298\nsamples = 0.1%\nvalue = [0.818, 0.182]\nclass = 0"] ;
752 -> 753 ;
754 [label="fnlwgt <= 107272.5\ngini = 0.427\nsamples = 0.4%\nvalue = [0.69, 0.31]\nclass = 0"] ;
752 -> 754 ;
755 [label="gini = 0.499\nsamples = 0.1%\nvalue = [0.48, 0.52]\nclass = 1"] ;
754 -> 755 ;
756 [label="fnlwgt <= 148866.5\ngini = 0.382\nsamples = 0.3%\nvalue = [0.743, 0.257]\nclass = 0"] ;
754 -> 756 ;
757 [label="gini = 0.305\nsamples = 0.1%\nvalue = [0.812, 0.188]\nclass = 0"] ;
756 -> 757 ;
758 [label="gini = 0.436\nsamples = 0.2%\nvalue = [0.679, 0.321]\nclass = 0"] ;
756 -> 758 ;
759 [label="gini = 0.0\nsamples = 0.1%\nvalue = [1.0, 0.0]\nclass = 0"] ;
747 -> 759 ;
760 [label="fnlwgt <= 355440.0\ngini = 0.427\nsamples = 0.9%\nvalue = [0.69, 0.31]\nclass = 0"] ;
746 -> 760 ;
761 [label="race_ White <= 0.5\ngini = 0.413\nsamples = 0.8%\nvalue = [0.709, 0.291]\nclass = 0"] ;
760 -> 761 ;
762 [label="gini = 0.303\nsamples = 0.1%\nvalue = [0.814, 0.186]\nclass = 0"] ;
761 -> 762 ;
763 [label="age <= 40.5\ngini = 0.43\nsamples = 0.6%\nvalue = [0.687, 0.313]\nclass = 0"] ;
761 -> 763 ;
764 [label="fnlwgt <= 283036.5\ngini = 0.462\nsamples = 0.3%\nvalue = [0.637, 0.363]\nclass = 0"] ;
763 -> 764 ;
765 [label="fnlwgt <= 211979.5\ngini = 0.425\nsamples = 0.2%\nvalue = [0.693, 0.307]\nclass = 0"] ;
764 -> 765 ;
766 [label="gini = 0.49\nsamples = 0.1%\nvalue = [0.571, 0.429]\nclass = 0"] ;
765 -> 766 ;
767 [label="gini = 0.32\nsamples = 0.1%\nvalue = [0.8, 0.2]\nclass = 0"] ;
765 -> 767 ;
768 [label="gini = 0.499\nsamples = 0.1%\nvalue = [0.481, 0.519]\nclass = 1"] ;
764 -> 768 ;
769 [label="occupation_ Craft-repair <= 0.5\ngini = 0.391\nsamples = 0.3%\nvalue = [0.734, 0.266]\nclass = 0"] ;
763 -> 769 ;
770 [label="age <= 43.5\ngini = 0.299\nsamples = 0.2%\nvalue = [0.817, 0.183]\nclass = 0"] ;
769 -> 770 ;
771 [label="gini = 0.219\nsamples = 0.1%\nvalue = [0.875, 0.125]\nclass = 0"] ;
770 -> 771 ;
772 [label="gini = 0.383\nsamples = 0.1%\nvalue = [0.742, 0.258]\nclass = 0"] ;
770 -> 772 ;
773 [label="gini = 0.488\nsamples = 0.1%\nvalue = [0.579, 0.421]\nclass = 0"] ;
769 -> 773 ;
774 [label="gini = 0.489\nsamples = 0.1%\nvalue = [0.575, 0.425]\nclass = 0"] ;
760 -> 774 ;
775 [label="age <= 59.5\ngini = 0.452\nsamples = 2.0%\nvalue = [0.654, 0.346]\nclass = 0"] ;
745 -> 775 ;
776 [label="age <= 58.5\ngini = 0.473\nsamples = 1.5%\nvalue = [0.616, 0.384]\nclass = 0"] ;
775 -> 776 ;
777 [label="relationship_ Husband <= 0.5\ngini = 0.466\nsamples = 1.5%\nvalue = [0.63, 0.37]\nclass = 0"] ;
776 -> 777 ;
778 [label="gini = 0.302\nsamples = 0.1%\nvalue = [0.815, 0.185]\nclass = 0"] ;
777 -> 778 ;
779 [label="fnlwgt <= 241617.5\ngini = 0.472\nsamples = 1.4%\nvalue = [0.619, 0.381]\nclass = 0"] ;
777 -> 779 ;
780 [label="fnlwgt <= 139892.0\ngini = 0.48\nsamples = 1.1%\nvalue = [0.599, 0.401]\nclass = 0"] ;
779 -> 780 ;
781 [label="fnlwgt <= 124721.5\ngini = 0.44\nsamples = 0.5%\nvalue = [0.673, 0.327]\nclass = 0"] ;
780 -> 781 ;
782 [label="gini = 0.453\nsamples = 0.4%\nvalue = [0.654, 0.346]\nclass = 0"] ;
781 -> 782 ;
783 [label="gini = 0.355\nsamples = 0.1%\nvalue = [0.769, 0.231]\nclass = 0"] ;
781 -> 783 ;
784 [label="fnlwgt <= 209941.0\ngini = 0.496\nsamples = 0.6%\nvalue = [0.544, 0.456]\nclass = 0"] ;
780 -> 784 ;
785 [label="gini = 0.489\nsamples = 0.5%\nvalue = [0.574, 0.426]\nclass = 0"] ;
784 -> 785 ;
786 [label="gini = 0.491\nsamples = 0.1%\nvalue = [0.432, 0.568]\nclass = 1"] ;
784 -> 786 ;
787 [label="fnlwgt <= 342804.5\ngini = 0.419\nsamples = 0.3%\nvalue = [0.701, 0.299]\nclass = 0"] ;
779 -> 787 ;
788 [label="fnlwgt <= 287339.5\ngini = 0.383\nsamples = 0.2%\nvalue = [0.742, 0.258]\nclass = 0"] ;
787 -> 788 ;
789 [label="gini = 0.422\nsamples = 0.1%\nvalue = [0.697, 0.303]\nclass = 0"] ;
788 -> 789 ;
790 [label="gini = 0.328\nsamples = 0.1%\nvalue = [0.793, 0.207]\nclass = 0"] ;
788 -> 790 ;
791 [label="gini = 0.48\nsamples = 0.1%\nvalue = [0.6, 0.4]\nclass = 0"] ;
787 -> 791 ;
792 [label="gini = 0.471\nsamples = 0.1%\nvalue = [0.379, 0.621]\nclass = 1"] ;
776 -> 792 ;
793 [label="fnlwgt <= 83855.5\ngini = 0.34\nsamples = 0.5%\nvalue = [0.783, 0.217]\nclass = 0"] ;
775 -> 793 ;
794 [label="gini = 0.461\nsamples = 0.1%\nvalue = [0.64, 0.36]\nclass = 0"] ;
793 -> 794 ;
795 [label="fnlwgt <= 161725.0\ngini = 0.307\nsamples = 0.4%\nvalue = [0.811, 0.189]\nclass = 0"] ;
793 -> 795 ;
796 [label="gini = 0.18\nsamples = 0.1%\nvalue = [0.9, 0.1]\nclass = 0"] ;
795 -> 796 ;
797 [label="fnlwgt <= 180892.5\ngini = 0.354\nsamples = 0.3%\nvalue = [0.77, 0.23]\nclass = 0"] ;
795 -> 797 ;
798 [label="gini = 0.461\nsamples = 0.1%\nvalue = [0.64, 0.36]\nclass = 0"] ;
797 -> 798 ;
799 [label="age <= 62.5\ngini = 0.292\nsamples = 0.2%\nvalue = [0.823, 0.177]\nclass = 0"] ;
797 -> 799 ;
800 [label="gini = 0.346\nsamples = 0.1%\nvalue = [0.778, 0.222]\nclass = 0"] ;
799 -> 800 ;
801 [label="gini = 0.245\nsamples = 0.1%\nvalue = [0.857, 0.143]\nclass = 0"] ;
799 -> 801 ;
802 [label="age <= 50.5\ngini = 0.495\nsamples = 0.5%\nvalue = [0.549, 0.451]\nclass = 0"] ;
744 -> 802 ;
803 [label="fnlwgt <= 175886.0\ngini = 0.498\nsamples = 0.3%\nvalue = [0.471, 0.529]\nclass = 1"] ;
802 -> 803 ;
804 [label="relationship_ Wife <= 0.5\ngini = 0.463\nsamples = 0.2%\nvalue = [0.364, 0.636]\nclass = 1"] ;
803 -> 804 ;
805 [label="gini = 0.49\nsamples = 0.1%\nvalue = [0.429, 0.571]\nclass = 1"] ;
804 -> 805 ;
806 [label="gini = 0.417\nsamples = 0.1%\nvalue = [0.296, 0.704]\nclass = 1"] ;
804 -> 806 ;
807 [label="gini = 0.483\nsamples = 0.2%\nvalue = [0.592, 0.408]\nclass = 0"] ;
803 -> 807 ;
808 [label="workclass_ Private <= 0.5\ngini = 0.433\nsamples = 0.2%\nvalue = [0.683, 0.317]\nclass = 0"] ;
802 -> 808 ;
809 [label="gini = 0.499\nsamples = 0.1%\nvalue = [0.52, 0.48]\nclass = 0"] ;
808 -> 809 ;
810 [label="gini = 0.32\nsamples = 0.1%\nvalue = [0.8, 0.2]\nclass = 0"] ;
808 -> 810 ;
811 [label="workclass_ Self-emp-not-inc <= 0.5\ngini = 0.484\nsamples = 2.1%\nvalue = [0.59, 0.41]\nclass = 0"] ;
743 -> 811 ;
812 [label="fnlwgt <= 338085.0\ngini = 0.492\nsamples = 1.8%\nvalue = [0.565, 0.435]\nclass = 0"] ;
811 -> 812 ;
813 [label="age <= 42.5\ngini = 0.487\nsamples = 1.7%\nvalue = [0.579, 0.421]\nclass = 0"] ;
812 -> 813 ;
814 [label="occupation_ Transport-moving <= 0.5\ngini = 0.454\nsamples = 0.7%\nvalue = [0.651, 0.349]\nclass = 0"] ;
813 -> 814 ;
815 [label="fnlwgt <= 111098.0\ngini = 0.47\nsamples = 0.5%\nvalue = [0.623, 0.377]\nclass = 0"] ;
814 -> 815 ;
816 [label="gini = 0.494\nsamples = 0.1%\nvalue = [0.553, 0.447]\nclass = 0"] ;
815 -> 816 ;
817 [label="fnlwgt <= 164051.5\ngini = 0.459\nsamples = 0.4%\nvalue = [0.642, 0.358]\nclass = 0"] ;
815 -> 817 ;
818 [label="fnlwgt <= 136780.5\ngini = 0.385\nsamples = 0.2%\nvalue = [0.74, 0.26]\nclass = 0"] ;
817 -> 818 ;
819 [label="gini = 0.461\nsamples = 0.1%\nvalue = [0.64, 0.36]\nclass = 0"] ;
818 -> 819 ;
820 [label="gini = 0.269\nsamples = 0.1%\nvalue = [0.84, 0.16]\nclass = 0"] ;
818 -> 820 ;
821 [label="hours.per.week <= 47.0\ngini = 0.485\nsamples = 0.3%\nvalue = [0.586, 0.414]\nclass = 0"] ;
817 -> 821 ;
822 [label="gini = 0.499\nsamples = 0.1%\nvalue = [0.481, 0.519]\nclass = 1"] ;
821 -> 822 ;
823 [label="fnlwgt <= 206634.0\ngini = 0.464\nsamples = 0.2%\nvalue = [0.633, 0.367]\nclass = 0"] ;
821 -> 823 ;
824 [label="gini = 0.422\nsamples = 0.1%\nvalue = [0.697, 0.303]\nclass = 0"] ;
823 -> 824 ;
825 [label="gini = 0.494\nsamples = 0.1%\nvalue = [0.556, 0.444]\nclass = 0"] ;
823 -> 825 ;
826 [label="gini = 0.349\nsamples = 0.1%\nvalue = [0.775, 0.225]\nclass = 0"] ;
814 -> 826 ;
827 [label="fnlwgt <= 234135.0\ngini = 0.498\nsamples = 1.0%\nvalue = [0.534, 0.466]\nclass = 0"] ;
813 -> 827 ;
828 [label="age <= 53.5\ngini = 0.5\nsamples = 0.9%\nvalue = [0.512, 0.488]\nclass = 0"] ;
827 -> 828 ;
829 [label="fnlwgt <= 86818.0\ngini = 0.498\nsamples = 0.6%\nvalue = [0.472, 0.528]\nclass = 1"] ;
828 -> 829 ;
830 [label="gini = 0.408\nsamples = 0.1%\nvalue = [0.714, 0.286]\nclass = 0"] ;
829 -> 830 ;
831 [label="fnlwgt <= 160149.0\ngini = 0.491\nsamples = 0.5%\nvalue = [0.432, 0.568]\nclass = 1"] ;
829 -> 831 ;
832 [label="fnlwgt <= 138759.5\ngini = 0.432\nsamples = 0.2%\nvalue = [0.315, 0.685]\nclass = 1"] ;
831 -> 832 ;
833 [label="gini = 0.487\nsamples = 0.1%\nvalue = [0.419, 0.581]\nclass = 1"] ;
832 -> 833 ;
834 [label="gini = 0.278\nsamples = 0.1%\nvalue = [0.167, 0.833]\nclass = 1"] ;
832 -> 834 ;
835 [label="age <= 48.5\ngini = 0.499\nsamples = 0.3%\nvalue = [0.521, 0.479]\nclass = 0"] ;
831 -> 835 ;
836 [label="gini = 0.49\nsamples = 0.2%\nvalue = [0.431, 0.569]\nclass = 1"] ;
835 -> 836 ;
837 [label="gini = 0.45\nsamples = 0.1%\nvalue = [0.658, 0.342]\nclass = 0"] ;
835 -> 837 ;
838 [label="fnlwgt <= 173394.0\ngini = 0.482\nsamples = 0.3%\nvalue = [0.594, 0.406]\nclass = 0"] ;
828 -> 838 ;
839 [label="fnlwgt <= 115961.0\ngini = 0.444\nsamples = 0.2%\nvalue = [0.667, 0.333]\nclass = 0"] ;
838 -> 839 ;
840 [label="gini = 0.495\nsamples = 0.1%\nvalue = [0.548, 0.452]\nclass = 0"] ;
839 -> 840 ;
841 [label="gini = 0.361\nsamples = 0.1%\nvalue = [0.763, 0.237]\nclass = 0"] ;
839 -> 841 ;
842 [label="gini = 0.483\nsamples = 0.1%\nvalue = [0.407, 0.593]\nclass = 1"] ;
838 -> 842 ;
843 [label="gini = 0.444\nsamples = 0.1%\nvalue = [0.667, 0.333]\nclass = 0"] ;
827 -> 843 ;
844 [label="gini = 0.42\nsamples = 0.1%\nvalue = [0.3, 0.7]\nclass = 1"] ;
812 -> 844 ;
845 [label="age <= 56.5\ngini = 0.397\nsamples = 0.3%\nvalue = [0.726, 0.274]\nclass = 0"] ;
811 -> 845 ;
846 [label="age <= 41.5\ngini = 0.341\nsamples = 0.2%\nvalue = [0.782, 0.218]\nclass = 0"] ;
845 -> 846 ;
847 [label="gini = 0.461\nsamples = 0.1%\nvalue = [0.64, 0.36]\nclass = 0"] ;
846 -> 847 ;
848 [label="fnlwgt <= 173854.0\ngini = 0.256\nsamples = 0.2%\nvalue = [0.849, 0.151]\nclass = 0"] ;
846 -> 848 ;
849 [label="gini = 0.32\nsamples = 0.1%\nvalue = [0.8, 0.2]\nclass = 0"] ;
848 -> 849 ;
850 [label="gini = 0.191\nsamples = 0.1%\nvalue = [0.893, 0.107]\nclass = 0"] ;
848 -> 850 ;
851 [label="gini = 0.49\nsamples = 0.1%\nvalue = [0.571, 0.429]\nclass = 0"] ;
845 -> 851 ;
852 [label="hours.per.week <= 51.5\ngini = 0.287\nsamples = 0.4%\nvalue = [0.826, 0.174]\nclass = 0"] ;
742 -> 852 ;
853 [label="fnlwgt <= 78133.5\ngini = 0.182\nsamples = 0.3%\nvalue = [0.899, 0.101]\nclass = 0"] ;
852 -> 853 ;
854 [label="gini = 0.32\nsamples = 0.1%\nvalue = [0.8, 0.2]\nclass = 0"] ;
853 -> 854 ;
855 [label="fnlwgt <= 168584.5\ngini = 0.117\nsamples = 0.2%\nvalue = [0.938, 0.062]\nclass = 0"] ;
853 -> 855 ;
856 [label="gini = 0.077\nsamples = 0.1%\nvalue = [0.96, 0.04]\nclass = 0"] ;
855 -> 856 ;
857 [label="gini = 0.142\nsamples = 0.1%\nvalue = [0.923, 0.077]\nclass = 0"] ;
855 -> 857 ;
858 [label="age <= 49.5\ngini = 0.413\nsamples = 0.2%\nvalue = [0.709, 0.291]\nclass = 0"] ;
852 -> 858 ;
859 [label="gini = 0.269\nsamples = 0.1%\nvalue = [0.84, 0.16]\nclass = 0"] ;
858 -> 859 ;
860 [label="gini = 0.48\nsamples = 0.1%\nvalue = [0.6, 0.4]\nclass = 0"] ;
858 -> 860 ;
861 [label="fnlwgt <= 170927.5\ngini = 0.263\nsamples = 0.4%\nvalue = [0.844, 0.156]\nclass = 0"] ;
741 -> 861 ;
862 [label="fnlwgt <= 122107.5\ngini = 0.328\nsamples = 0.2%\nvalue = [0.794, 0.206]\nclass = 0"] ;
861 -> 862 ;
863 [label="gini = 0.193\nsamples = 0.1%\nvalue = [0.892, 0.108]\nclass = 0"] ;
862 -> 863 ;
864 [label="gini = 0.453\nsamples = 0.1%\nvalue = [0.654, 0.346]\nclass = 0"] ;
862 -> 864 ;
865 [label="age <= 53.5\ngini = 0.204\nsamples = 0.2%\nvalue = [0.885, 0.115]\nclass = 0"] ;
861 -> 865 ;
866 [label="age <= 44.5\ngini = 0.265\nsamples = 0.2%\nvalue = [0.843, 0.157]\nclass = 0"] ;
865 -> 866 ;
867 [label="gini = 0.142\nsamples = 0.1%\nvalue = [0.923, 0.077]\nclass = 0"] ;
866 -> 867 ;
868 [label="gini = 0.365\nsamples = 0.1%\nvalue = [0.76, 0.24]\nclass = 0"] ;
866 -> 868 ;
869 [label="gini = 0.071\nsamples = 0.1%\nvalue = [0.963, 0.037]\nclass = 0"] ;
865 -> 869 ;
870 [label="workclass_ Self-emp-not-inc <= 0.5\ngini = 0.5\nsamples = 0.8%\nvalue = [0.513, 0.487]\nclass = 0"] ;
740 -> 870 ;
871 [label="fnlwgt <= 190421.0\ngini = 0.497\nsamples = 0.7%\nvalue = [0.459, 0.541]\nclass = 1"] ;
870 -> 871 ;
872 [label="fnlwgt <= 69245.5\ngini = 0.5\nsamples = 0.4%\nvalue = [0.514, 0.486]\nclass = 0"] ;
871 -> 872 ;
873 [label="gini = 0.464\nsamples = 0.1%\nvalue = [0.633, 0.367]\nclass = 0"] ;
872 -> 873 ;
874 [label="fnlwgt <= 119844.5\ngini = 0.499\nsamples = 0.4%\nvalue = [0.482, 0.518]\nclass = 1"] ;
872 -> 874 ;
875 [label="gini = 0.464\nsamples = 0.1%\nvalue = [0.366, 0.634]\nclass = 1"] ;
874 -> 875 ;
876 [label="hours.per.week <= 42.0\ngini = 0.495\nsamples = 0.2%\nvalue = [0.548, 0.452]\nclass = 0"] ;
874 -> 876 ;
877 [label="gini = 0.5\nsamples = 0.1%\nvalue = [0.487, 0.513]\nclass = 1"] ;
876 -> 877 ;
878 [label="gini = 0.472\nsamples = 0.1%\nvalue = [0.618, 0.382]\nclass = 0"] ;
876 -> 878 ;
879 [label="fnlwgt <= 255932.5\ngini = 0.456\nsamples = 0.2%\nvalue = [0.351, 0.649]\nclass = 1"] ;
871 -> 879 ;
880 [label="gini = 0.387\nsamples = 0.1%\nvalue = [0.262, 0.738]\nclass = 1"] ;
879 -> 880 ;
881 [label="gini = 0.498\nsamples = 0.1%\nvalue = [0.469, 0.531]\nclass = 1"] ;
879 -> 881 ;
882 [label="fnlwgt <= 161934.5\ngini = 0.38\nsamples = 0.2%\nvalue = [0.745, 0.255]\nclass = 0"] ;
870 -> 882 ;
883 [label="gini = 0.365\nsamples = 0.1%\nvalue = [0.76, 0.24]\nclass = 0"] ;
882 -> 883 ;
884 [label="gini = 0.393\nsamples = 0.1%\nvalue = [0.731, 0.269]\nclass = 0"] ;
882 -> 884 ;
885 [label="workclass_ Self-emp-not-inc <= 0.5\ngini = 0.499\nsamples = 6.4%\nvalue = [0.524, 0.476]\nclass = 0"] ;
739 -> 885 ;
886 [label="occupation_ Exec-managerial <= 0.5\ngini = 0.5\nsamples = 5.7%\nvalue = [0.5, 0.5]\nclass = 0"] ;
885 -> 886 ;
887 [label="occupation_ Handlers-cleaners <= 0.5\ngini = 0.498\nsamples = 4.7%\nvalue = [0.531, 0.469]\nclass = 0"] ;
886 -> 887 ;
888 [label="occupation_ Other-service <= 0.5\ngini = 0.499\nsamples = 4.5%\nvalue = [0.522, 0.478]\nclass = 0"] ;
887 -> 888 ;
889 [label="fnlwgt <= 154698.0\ngini = 0.5\nsamples = 4.4%\nvalue = [0.511, 0.489]\nclass = 0"] ;
888 -> 889 ;
890 [label="occupation_ Transport-moving <= 0.5\ngini = 0.487\nsamples = 1.7%\nvalue = [0.579, 0.421]\nclass = 0"] ;
889 -> 890 ;
891 [label="workclass_ Self-emp-inc <= 0.5\ngini = 0.493\nsamples = 1.6%\nvalue = [0.561, 0.439]\nclass = 0"] ;
890 -> 891 ;
892 [label="fnlwgt <= 71713.0\ngini = 0.489\nsamples = 1.5%\nvalue = [0.576, 0.424]\nclass = 0"] ;
891 -> 892 ;
893 [label="fnlwgt <= 48598.0\ngini = 0.456\nsamples = 0.4%\nvalue = [0.647, 0.353]\nclass = 0"] ;
892 -> 893 ;
894 [label="fnlwgt <= 31652.5\ngini = 0.492\nsamples = 0.2%\nvalue = [0.562, 0.438]\nclass = 0"] ;
893 -> 894 ;
895 [label="gini = 0.428\nsamples = 0.1%\nvalue = [0.69, 0.31]\nclass = 0"] ;
894 -> 895 ;
896 [label="gini = 0.499\nsamples = 0.1%\nvalue = [0.477, 0.523]\nclass = 1"] ;
894 -> 896 ;
897 [label="fnlwgt <= 53788.5\ngini = 0.382\nsamples = 0.2%\nvalue = [0.742, 0.258]\nclass = 0"] ;
893 -> 897 ;
898 [label="gini = 0.077\nsamples = 0.1%\nvalue = [0.96, 0.04]\nclass = 0"] ;
897 -> 898 ;
899 [label="gini = 0.476\nsamples = 0.1%\nvalue = [0.61, 0.39]\nclass = 0"] ;
897 -> 899 ;
900 [label="fnlwgt <= 82426.5\ngini = 0.496\nsamples = 1.1%\nvalue = [0.547, 0.453]\nclass = 0"] ;
892 -> 900 ;
901 [label="gini = 0.435\nsamples = 0.1%\nvalue = [0.32, 0.68]\nclass = 1"] ;
900 -> 901 ;
902 [label="hours.per.week <= 46.5\ngini = 0.492\nsamples = 1.0%\nvalue = [0.564, 0.436]\nclass = 0"] ;
900 -> 902 ;
903 [label="age <= 46.5\ngini = 0.481\nsamples = 0.8%\nvalue = [0.597, 0.403]\nclass = 0"] ;
902 -> 903 ;
904 [label="occupation_ Craft-repair <= 0.5\ngini = 0.439\nsamples = 0.4%\nvalue = [0.675, 0.325]\nclass = 0"] ;
903 -> 904 ;
905 [label="gini = 0.483\nsamples = 0.3%\nvalue = [0.593, 0.407]\nclass = 0"] ;
904 -> 905 ;
906 [label="gini = 0.255\nsamples = 0.1%\nvalue = [0.85, 0.15]\nclass = 0"] ;
904 -> 906 ;
907 [label="fnlwgt <= 116592.5\ngini = 0.499\nsamples = 0.4%\nvalue = [0.516, 0.484]\nclass = 0"] ;
903 -> 907 ;
908 [label="gini = 0.474\nsamples = 0.2%\nvalue = [0.614, 0.386]\nclass = 0"] ;
907 -> 908 ;
909 [label="gini = 0.49\nsamples = 0.2%\nvalue = [0.431, 0.569]\nclass = 1"] ;
907 -> 909 ;
910 [label="age <= 49.0\ngini = 0.497\nsamples = 0.2%\nvalue = [0.462, 0.538]\nclass = 1"] ;
902 -> 910 ;
911 [label="gini = 0.47\nsamples = 0.1%\nvalue = [0.378, 0.622]\nclass = 1"] ;
910 -> 911 ;
912 [label="gini = 0.489\nsamples = 0.1%\nvalue = [0.576, 0.424]\nclass = 0"] ;
910 -> 912 ;
913 [label="gini = 0.465\nsamples = 0.1%\nvalue = [0.368, 0.632]\nclass = 1"] ;
891 -> 913 ;
914 [label="gini = 0.289\nsamples = 0.1%\nvalue = [0.825, 0.175]\nclass = 0"] ;
890 -> 914 ;
915 [label="occupation_ Tech-support <= 0.5\ngini = 0.498\nsamples = 2.6%\nvalue = [0.466, 0.534]\nclass = 1"] ;
889 -> 915 ;
916 [label="relationship_ Wife <= 0.5\ngini = 0.499\nsamples = 2.4%\nvalue = [0.48, 0.52]\nclass = 1"] ;
915 -> 916 ;
917 [label="hours.per.week <= 43.5\ngini = 0.5\nsamples = 2.3%\nvalue = [0.494, 0.506]\nclass = 1"] ;
916 -> 917 ;
918 [label="workclass_ Local-gov <= 0.5\ngini = 0.498\nsamples = 1.4%\nvalue = [0.532, 0.468]\nclass = 0"] ;
917 -> 918 ;
919 [label="fnlwgt <= 172694.0\ngini = 0.495\nsamples = 1.3%\nvalue = [0.552, 0.448]\nclass = 0"] ;
918 -> 919 ;
920 [label="fnlwgt <= 165400.5\ngini = 0.471\nsamples = 0.2%\nvalue = [0.38, 0.62]\nclass = 1"] ;
919 -> 920 ;
921 [label="gini = 0.493\nsamples = 0.1%\nvalue = [0.44, 0.56]\nclass = 1"] ;
920 -> 921 ;
922 [label="gini = 0.435\nsamples = 0.1%\nvalue = [0.32, 0.68]\nclass = 1"] ;
920 -> 922 ;
923 [label="occupation_ Prof-specialty <= 0.5\ngini = 0.489\nsamples = 1.1%\nvalue = [0.576, 0.424]\nclass = 0"] ;
919 -> 923 ;
924 [label="age <= 43.5\ngini = 0.48\nsamples = 1.0%\nvalue = [0.599, 0.401]\nclass = 0"] ;
923 -> 924 ;
925 [label="gini = 0.446\nsamples = 0.4%\nvalue = [0.664, 0.336]\nclass = 0"] ;
924 -> 925 ;
926 [label="gini = 0.495\nsamples = 0.5%\nvalue = [0.551, 0.449]\nclass = 0"] ;
924 -> 926 ;
927 [label="fnlwgt <= 214998.5\ngini = 0.491\nsamples = 0.2%\nvalue = [0.431, 0.569]\nclass = 1"] ;
923 -> 927 ;
928 [label="gini = 0.48\nsamples = 0.1%\nvalue = [0.4, 0.6]\nclass = 1"] ;
927 -> 928 ;
929 [label="gini = 0.497\nsamples = 0.1%\nvalue = [0.462, 0.538]\nclass = 1"] ;
927 -> 929 ;
930 [label="gini = 0.444\nsamples = 0.1%\nvalue = [0.333, 0.667]\nclass = 1"] ;
918 -> 930 ;
931 [label="fnlwgt <= 218822.5\ngini = 0.491\nsamples = 0.9%\nvalue = [0.433, 0.567]\nclass = 1"] ;
917 -> 931 ;
932 [label="hours.per.week <= 50.5\ngini = 0.499\nsamples = 0.5%\nvalue = [0.516, 0.484]\nclass = 0"] ;
931 -> 932 ;
933 [label="age <= 40.5\ngini = 0.497\nsamples = 0.3%\nvalue = [0.461, 0.539]\nclass = 1"] ;
932 -> 933 ;
934 [label="gini = 0.464\nsamples = 0.1%\nvalue = [0.367, 0.633]\nclass = 1"] ;
933 -> 934 ;
935 [label="fnlwgt <= 187534.0\ngini = 0.5\nsamples = 0.2%\nvalue = [0.508, 0.492]\nclass = 0"] ;
933 -> 935 ;
936 [label="gini = 0.493\nsamples = 0.1%\nvalue = [0.441, 0.559]\nclass = 1"] ;
935 -> 936 ;
937 [label="gini = 0.48\nsamples = 0.1%\nvalue = [0.6, 0.4]\nclass = 0"] ;
935 -> 937 ;
938 [label="hours.per.week <= 58.5\ngini = 0.484\nsamples = 0.2%\nvalue = [0.588, 0.412]\nclass = 0"] ;
932 -> 938 ;
939 [label="gini = 0.403\nsamples = 0.1%\nvalue = [0.72, 0.28]\nclass = 0"] ;
938 -> 939 ;
940 [label="gini = 0.5\nsamples = 0.1%\nvalue = [0.512, 0.488]\nclass = 0"] ;
938 -> 940 ;
941 [label="age <= 40.5\ngini = 0.441\nsamples = 0.4%\nvalue = [0.328, 0.672]\nclass = 1"] ;
931 -> 941 ;
942 [label="gini = 0.499\nsamples = 0.1%\nvalue = [0.474, 0.526]\nclass = 1"] ;
941 -> 942 ;
943 [label="hours.per.week <= 49.5\ngini = 0.389\nsamples = 0.3%\nvalue = [0.264, 0.736]\nclass = 1"] ;
941 -> 943 ;
944 [label="gini = 0.211\nsamples = 0.1%\nvalue = [0.12, 0.88]\nclass = 1"] ;
943 -> 944 ;
945 [label="fnlwgt <= 306672.5\ngini = 0.437\nsamples = 0.2%\nvalue = [0.323, 0.677]\nclass = 1"] ;
943 -> 945 ;
946 [label="gini = 0.482\nsamples = 0.1%\nvalue = [0.405, 0.595]\nclass = 1"] ;
945 -> 946 ;
947 [label="gini = 0.32\nsamples = 0.1%\nvalue = [0.2, 0.8]\nclass = 1"] ;
945 -> 947 ;
948 [label="fnlwgt <= 206195.5\ngini = 0.423\nsamples = 0.2%\nvalue = [0.304, 0.696]\nclass = 1"] ;
916 -> 948 ;
949 [label="gini = 0.403\nsamples = 0.1%\nvalue = [0.28, 0.72]\nclass = 1"] ;
948 -> 949 ;
950 [label="gini = 0.437\nsamples = 0.1%\nvalue = [0.323, 0.677]\nclass = 1"] ;
948 -> 950 ;
951 [label="fnlwgt <= 220416.0\ngini = 0.402\nsamples = 0.2%\nvalue = [0.279, 0.721]\nclass = 1"] ;
915 -> 951 ;
952 [label="gini = 0.32\nsamples = 0.1%\nvalue = [0.2, 0.8]\nclass = 1"] ;
951 -> 952 ;
953 [label="gini = 0.473\nsamples = 0.1%\nvalue = [0.385, 0.615]\nclass = 1"] ;
951 -> 953 ;
954 [label="age <= 46.5\ngini = 0.344\nsamples = 0.2%\nvalue = [0.78, 0.22]\nclass = 0"] ;
888 -> 954 ;
955 [label="gini = 0.251\nsamples = 0.1%\nvalue = [0.853, 0.147]\nclass = 0"] ;
954 -> 955 ;
956 [label="gini = 0.435\nsamples = 0.1%\nvalue = [0.68, 0.32]\nclass = 0"] ;
954 -> 956 ;
957 [label="gini = 0.229\nsamples = 0.1%\nvalue = [0.868, 0.132]\nclass = 0"] ;
887 -> 957 ;
958 [label="hours.per.week <= 41.0\ngini = 0.46\nsamples = 1.0%\nvalue = [0.358, 0.642]\nclass = 1"] ;
886 -> 958 ;
959 [label="fnlwgt <= 124414.5\ngini = 0.494\nsamples = 0.5%\nvalue = [0.443, 0.557]\nclass = 1"] ;
958 -> 959 ;
960 [label="fnlwgt <= 95871.0\ngini = 0.499\nsamples = 0.2%\nvalue = [0.52, 0.48]\nclass = 0"] ;
959 -> 960 ;
961 [label="gini = 0.499\nsamples = 0.1%\nvalue = [0.48, 0.52]\nclass = 1"] ;
960 -> 961 ;
962 [label="gini = 0.493\nsamples = 0.1%\nvalue = [0.56, 0.44]\nclass = 0"] ;
960 -> 962 ;
963 [label="fnlwgt <= 213230.5\ngini = 0.483\nsamples = 0.3%\nvalue = [0.407, 0.593]\nclass = 1"] ;
959 -> 963 ;
964 [label="age <= 47.5\ngini = 0.448\nsamples = 0.2%\nvalue = [0.339, 0.661]\nclass = 1"] ;
963 -> 964 ;
965 [label="gini = 0.415\nsamples = 0.1%\nvalue = [0.294, 0.706]\nclass = 1"] ;
964 -> 965 ;
966 [label="gini = 0.48\nsamples = 0.1%\nvalue = [0.4, 0.6]\nclass = 1"] ;
964 -> 966 ;
967 [label="gini = 0.5\nsamples = 0.2%\nvalue = [0.49, 0.51]\nclass = 1"] ;
963 -> 967 ;
968 [label="education.num <= 10.5\ngini = 0.402\nsamples = 0.5%\nvalue = [0.278, 0.722]\nclass = 1"] ;
958 -> 968 ;
969 [label="fnlwgt <= 154345.0\ngini = 0.45\nsamples = 0.4%\nvalue = [0.342, 0.658]\nclass = 1"] ;
968 -> 969 ;
970 [label="fnlwgt <= 112487.0\ngini = 0.497\nsamples = 0.2%\nvalue = [0.462, 0.538]\nclass = 1"] ;
969 -> 970 ;
971 [label="gini = 0.497\nsamples = 0.1%\nvalue = [0.538, 0.462]\nclass = 0"] ;
970 -> 971 ;
972 [label="gini = 0.473\nsamples = 0.1%\nvalue = [0.385, 0.615]\nclass = 1"] ;
970 -> 972 ;
